0.11698,0.017248,0.0065332,-0.22667,0.042428,0.038717,0.086787,6.4665e-05,0.076236,0.033875,-7.394e-05,-0.079383,-0.12774,0.026617,-0.090981,-0.17878,-0.38988,-2.7001e-05,0.045862,-0.011881,0.027097,0.031301,-0.039131,-0.13467,-0.050176,-0.020281,-0.034018,0.019498,0.043673,-0.15213,0.049234,-0.13171,0.026928,0.034412,0.046857,-0.06435,-0.010372,0.039795,0.0064798,0.0029015,-0.021616,-0.16193,-0.086287,-0.1762,-0.0062017,-0.15204,0.032249,0.023497,-0.25094,0.036954,-0.069061,-0.022952,0.02633,0.054219,-0.0054318,0.013722,0.011653,-0.35612,0.03128,-0.066435,0.038911,-0.16177,0.033251,-0.022971,0.063587,0.065808,-0.001291,0.053045,0.0099846,0.03521,0.014722,-0.15072,-0.05548,-0.21755,-0.16321,-0.0082251,0.0051828,0.06171,-0.1435,0.033159,0.0062325,-0.026394,0.015578,0.01965,0.0069847,-0.065562,0.029652,-0.20552,0.043222,-0.178,-0.078801,0.071532,-0.0043608,0.090609,0.041244,-0.11833,0.057211,-0.19435,-0.15683,-0.24796,0.031103,-0.013178,0.040135,0.058921,-0.072465,0.046056,0.026806,-0.10078,-0.082706,-0.052963,-0.012596,-0.06034,-0.002737,0.016673,0.018354,-0.10201,0.013858,-0.13544,-0.2061,0.024633,-0.26356,0.025425,0.05128,0.018284,0.017314,-0.018769,-0.10034,0.02129,0.019094,0.037032,-0.18283,0.024115,0.028325,-0.17925,-0.17021,0.033352,0.036384,-0.034277,-0.098784,0.011256,-0.1948,-0.21985,0.018479,-0.062135,0.026845,0.016813,-0.15329,-0.14099,-0.0795,-0.17541,-0.0051002,0.027872,0.036817,-0.14111,-0.14467,0.027812,0.0086245,-0.02306,0.012654,-0.32563,0.029662,-0.045322,-0.012297,0.033353,0.039165,0.012351,-0.055895,0.025746,-0.13391,0.049118,-0.0082964,0.062727,-0.0062052,-0.12638,0.00043736,-0.18259,0.002077,0.0077193,0.058249,0.067266,0.0042524,0.024535,0.013941,0.026571,-0.1638,0.019949,-0.0036046,0.043182,-0.15305,0.045815,-0.086426,-0.080552,-0.019504,-0.023653,-0.00075318,0.030437,-0.04659,0.031112,-0.10096,-0.0011365,0.043501,0.027207,-0.10016,0.074835,0.002208,0.021738,0.017227,-0.03063,-0.0043947,0.062181,-0.10759,0.010734,0.0019475,0.038918,0.050273,-0.016619,0.0071548,-0.040475,0.00086589,0.038362,-0.066457,0.0020203,-0.16064,0.0090874,0.065299,-0.041028,0.022242,0.029108,-0.040356,0.035378,0.064012,0.020268,0.031264,-0.19598,-0.13673,0.003652,-0.085135,0.025843,0.024591,0.008502,-0.26807,0.029583,-0.07465,-0.095338,-0.27661,0.046494,0.016382,-0.11028,-0.15729,0.0035839,-0.12641,0.03772,0.041536,0.00463,0.032458,0.0090149,0.022491,0.053891,0.0542,0.0021367,0.040356,-0.091928,-0.15167,0.013505,0.0064969,-0.00021472,0.099493,0.0073685,0.042744,-0.17399,0.041317,-0.091762,-0.10821,0.0057634,-0.23385,0.00096555,0.032121,-0.00083701,-0.011508,-0.17172,-0.001572,-0.1164,-0.020359,-0.041742,-0.25206,-0.025964,0.028476,0.068259,-0.0018565,0.024135,0.040037,0.0056427,-0.18833,-0.04956,0.04228,0.061822,0.048906,0.035643,-0.070089,-0.030297,0.05935,0.0030246,-0.31956,0.021914,-0.011368,-0.25146,0.018941,0.0352,-0.22548,0.039966,0.023926,-0.12928,0.010438,-0.26502,0.047991,-0.20404,0.041459,-0.02949,-0.0055338,-0.148,0.037833,0.022919,-0.027979,0.0031419,0.0029372,-0.06401,-0.17378,0.029608,0.0029814,-0.1779,0.019274,-0.11777,-0.096963,0.027293,-0.013045,-0.13576,0.026362,0.014128,0.010461,-0.0024202,0.048947,0.0049383,0.0060836,0.04634,-0.063025,-0.17545,0.0073565,-0.0018757,0.023132,-0.01149,-0.2116,0.035709,-0.020407,0.078366,0.026766,0.05587,-0.35016,0.02992,0.049371,0.069344,0.0091139,-0.22277,0.01444,0.0077552,-0.13804,-0.22342,-0.13489,0.016306,-0.067493,-0.19779,0.020158,0.050499,0.040365,-0.0043523,-0.23551,0.015662,0.046579,-0.31559,-0.070363,0.0048107,-0.20483,0.043935,-0.15082,0.015043,0.020986,0.099328,-0.010682,-0.084471,-0.084404,-0.15191,-0.072477,-0.11648,-0.030538,0.054072,0.018963,0.030932,-0.17338,0.015515,-0.0031963,0.021844,-0.00053119,0.019888,0.0079468,0.012025,0.027205,0.0028486,0.015697,-0.045834,-0.064713,0.033388,-0.18329,-0.094401,-0.14212,0.02304,0.013395,-0.23706,0.019283,0.013422,0.028518,-0.19305,-0.02488,0.032989,0.010114,-0.096038,-0.18578,-0.11545,-0.2516,-0.022861,0.022535,0.025841,-0.15866,-0.20606,0.067897,-0.00058374,0.023166,0.074818,-0.12934,0.016721,-0.069392,0.049904,0.060715,0.0058036,0.050229,0.067669,0.044408,0.036536,-0.053014,0.050124,0.059228,0.046219,0.051712,-0.087038,-0.062256,0.019807,0.009997,-0.10205,-0.19613,0.051225,-0.18198,-0.15571,-0.20909,-0.0012693,0.02277,-0.053844,0.010306,0.0093828,0.0025831,-0.010761,0.057409,0.064786,-0.0092231,0.013772,-0.081912,-0.011106,-0.01441,-0.27614,0.038383,-0.091101,-0.1048,0.033416,0.048789,0.019222,0.030077,-0.1239,-0.20966,0.043515,0.021064,-0.092112,0.008515,0.070662,0.048579,0.021165,-0.014926,-0.15415,0.079758,0.045046,0.023075,-0.23431,-0.058502,-0.15859,0.057143,0.010879,0.042655,-0.0019285,0.0055985,-0.12504,-0.0278,0.053918,-0.10119,-0.28616,0.037274,-0.11118,-0.17331,0.04888,-0.0062551,-0.13016,-0.15974,-0.27599,-0.18254,0.028868,0.060344,0.031646,-0.00021012,0.03837,-0.18678,0.021586,-0.068205,-0.06323,0.034999,0.06084,-0.13122,0.038583,-0.060847,-0.18027,-0.052231,0.05285,-0.085642,0.033583,0.040498,0.038942,-0.29973,0.010126,-0.081507,-0.16196,0.017325,0.060709,-0.079584,0.030022,-0.12735,0.014516,-0.10275,-0.14307,-0.19054,-0.26357,-0.2816,-0.061374,-0.098101,-0.094891,-0.084971,-0.022011,-0.27421,-0.02832,0.052824,-0.0079217,0.053026,0.047449,-0.16698,-0.086496,-0.10839,-0.15636,-0.085277,0.033692,0.036108,-0.27155,0.052564,0.032085,0.01038,0.020986,-0.24065,0.019951,0.01616,0.022215,-0.18049,-0.1085,-0.0029143,0.025737,0.014155,0.016897,0.0085475,-0.0054064,0.040501,0.015935,0.045466,-0.14846,-0.01846,-0.21733,0.022035,0.038186,0.050307,0.016069,0.0099172,0.014637,0.046146,-0.23799,-0.048755,-0.13124,-0.20183,0.065316,0.025203,0.0040238,0.021019,0.044547,-0.0029901,-0.00024715,-0.26916,-0.014261,0.053938,-0.12762,-0.085699,-0.19807,-0.0022809,-0.2879,0.044058,-0.10786,-0.13861,0.01554,0.0083498,0.033051,0.006543,-0.25373,0.051637,0.02106,-0.017105,0.020048,-0.24539,0.014446,-0.017632,0.001025,-0.051585,-0.020294,0.069659,0.037653,0.026115,0.016022,-0.055436,0.066835,0.027607,-0.11814,0.015891,-0.060829,-0.14096,0.017128,-0.049861,0.022556,0.016283,0.022411,-0.23408,0.067704,0.024242,0.0043719,0.022321,0.052134,-0.27123,-0.18472,-0.11204,0.0053193,0.03014,-0.19567,-0.14502,0.033059,-0.23283,-0.076436,0.023592,0.035137,-0.072711,-0.26059,0.046213,-0.065594,0.026161,0.021804,0.015697,0.03635,0.0013046,0.025138,0.06088,-0.21404,0.045438,-0.1334,-0.14261,0.013141,0.0037046,0.045203,0.022449,0.089752,-0.0028214,0.029825,-0.044853,-0.0068672,0.049389,0.02988,0.080498,-0.17534,-0.14913,0.024714,0.028925,-0.094318,-0.13617,0.0067568,0.060776,0.026995,-0.14205,0.0016817,-0.1987,-0.12217,-0.10943,-0.15633,0.0060523,-0.040257,-0.015143,-0.15694,-0.0056174,0.016958,-0.093699,-0.24194,-0.074185,-0.15531,-0.18246,-0.0011534,0.0039719,0.064896,-0.058883,-0.24134,-0.033765,-0.0010081,-0.25787,-0.096246,0.021486,0.011159,-0.24602,-0.018713,0.039374,0.0045208,-0.128,0.04362,-0.081831,0.037049,-0.026043,-0.23313,0.0066681,0.012547,0.0227,0.035956,-0.079177,-0.027667,0.049051,0.048478,-0.10647,0.019707,-0.092492,0.012949,0.024633,0.0094176,-0.14431,0.029164,0.023029,-0.0076227,0.042409,0.0068414,-0.23332,-0.201,0.04344,-0.084042,0.016421,-0.27491,0.00021031,0.011238,0.025759,-0.11544,-0.25741,0.02779,0.032014,-0.12689,0.042819,0.0028358,-0.02776,-0.16872,0.025373,0.035886,0.094893,-0.076184,0.034293,-0.14973,0.042444,-0.02433,0.018965,-0.29007,0.033806,-0.17123,0.075074,0.074389,-7.3466e-05,0.060696,-0.0084595,0.012066,0.027459,0.022304,0.040905,-0.17968,0.041381,-0.048861,0.034061,0.046434,0.0034722,0.033669,0.029555,-0.0056498,-0.15483,0.028017,-0.13306,-0.010405,0.031893,0.028614,0.027124,-0.18322,-0.14022,-0.029596,0.069953,-0.25277,-0.14712,-0.16175,-0.070782,0.023284,-0.010986,-0.063335,0.022589,-0.10595,-0.019298,0.010971,0.035837,0.080916,-0.1451,-0.30369,-0.036634,-0.14064,0.080775,-0.1579,0.03132,0.065153,-0.043794,0.056479,-0.17011,-0.12238,0.040142,0.040538,-0.094157,0.016232,-0.17712,0.068576,-0.13912,-0.19879,-0.20089,0.041106,-0.16341,0.0261,-0.28999,0.053319,0.036943,-0.1802,0.06115,-0.23079,0.044301,0.036386,-0.004348,0.021082,0.018654,-0.12362,0.019987,0.053119,0.010865,0.038341,-0.0057824,-0.25651,0.022135,-0.11189,-0.1395,-0.17192,-0.13383,-0.119,0.013075,-0.17189,0.061394,0.017952,-0.14671,0.015324,0.013667,0.026179,0.028517,-0.016158,0.025778,0.017023,-0.1762,0.048095,0.020283,-0.11982,-0.11351,0.045921,0.039446,-0.18367,0.02853,-0.049582,-0.003673,-0.14061,-0.2,0.042966,0.064762,0.015394,0.0052498,-0.067865,0.023043,0.043349,-0.2577,0.0092971,-0.068384,0.03433,0.027053,-0.0044553,-0.03689,0.0092732,-0.1749,-0.032483,-0.31259,-0.13607,0.051764,-0.040437,-0.039089,0.055191,0.017938,-0.20826,-0.088742,0.046308,0.0037064,0.025285,-0.039234,0.018912,-0.062307,-0.12592,-0.074741,0.1055,-0.0111,0.075724,0.018512,-0.06212,0.078382,-0.1112,-0.18487,-0.12141,-0.21593,0.026338,0.019622,0.022161,-0.1972,-0.26718,0.19383,0.037916,0.047606,0.020682,0.026556,-0.0066549,-0.2562,0.040479,0.021242,-0.15713,0.0556,-0.28577,0.02438,-0.052638,0.018995,-0.063638,0.020326,0.019602,0.012958,-0.029845,-0.16772,0.056845,0.020708,0.038932,-0.017894,-0.20939,-0.22135,0.034987,-0.05281,-0.11392,-0.07669,-0.013068,-0.040487,0.024785,0.025523,-0.17635,-0.086743,-0.1716,0.0034489,0.034417,0.01535,-0.0032818,-0.15141,0.022424,0.048529,0.041591,0.05406,-0.065275,0.030333,-0.12504,0.041738,-0.028862,0.059978,-0.13603,-0.013502,0.0070836,-0.16521,0.02488,-0.045351,-0.2398,-0.34071,0.018082,0.019265,-0.10442,-0.07589,0.038753,-0.13624,0.035204,-0.15643,0.013428,-0.0021699,0.049472,-0.17353,0.0319,0.0065938,-0.10451,0.027579,0.021578,0.0032229,-0.037983,0.0088329,0.01108,-0.026512,0.027742,0.04931,-0.26616,0.04426,-0.19064,-0.095231,0.031142,0.046323,-0.16544,0.040799,0.02648,0.035072,0.020576,0.026727,0.021423,0.0015157,0.0021803,0.0494,0.036476,0.043073,0.011549,-0.11472,0.037147,0.015765,-0.015141,-0.0062168,0.024553,-0.14991,0.004548,-0.16363,0.037876,-0.22545,0.023955,-0.040781,0.030162,-0.16335,0.013533,0.018009,0.018329,0.023575,-0.094048,-0.10481,0.0046539,-0.0015308,-0.12644,-0.15891,-0.066866,-0.17919,0.010724,0.038077,0.0017254,-0.26691,-0.23097,0.03787,0.02381,0.042157,0.067956,-0.046883,-0.19243,0.0063048,0.043182,-0.067795,-0.015019,0.076769,-0.030069,0.045237,-0.00065037,-0.3268,0.016192,0.034436,0.023059,-0.29329,-0.031634,-0.063865,0.028883,0.0078619,0.0069531,0.0013295,-0.091543,-0.1719,0.029978,-0.069218,-0.052791,0.067342,0.018641,-0.15046,0.031222,0.041179,0.037071,-0.09623,-0.059752,0.021875,0.070569,0.016564,0.023048,0.066229,-0.08451,0.054392,0.028651,0.095362,0.0074251,0.015434,-0.0092633,-0.014095,-0.020175,-0.22219,0.043214,-0.18361,-0.20467,-0.08481,0.085717,-0.026424,0.017024,-0.13671,-0.34545,0.049299,0.042314,0.031636,0.008041,-0.1337,-0.17842,-0.023238,0.046748,0.045649,0.0097608,0.028448,0.024048,-0.017609,-0.22686,-0.013317,0.030214,0.0077385,-0.0021887,0.10026,0.072653,-0.12658,-0.049883,0.021283,0.01856,-0.00094432,-0.02498,-0.022706,-0.13849,0.040456,0.01187,-0.11794,-0.067403,0.02987,0.022804,0.016051,0.060719,0.047521,0.02574,0.011011,0.01323
0.015398,-0.0084738,-0.16562,-0.021741,0.00064419,0.040983,-0.18553,0.026656,-0.18038,-0.1792,0.0093635,0.026696,-0.020593,-0.059001,-0.072713,0.017334,0.012784,0.037832,0.057513,-0.087063,0.055434,0.043238,0.0069085,0.011019,-0.016681,-0.16429,-0.094927,-0.1504,-0.073602,-0.058313,0.033786,0.054217,-0.023092,0.032921,0.017773,-0.16109,-0.15314,0.035637,0.0074379,-0.29198,0.041036,0.017931,-0.19569,0.026411,-0.21474,-0.11107,0.022308,0.12937,-0.040649,0.022721,-0.038528,-0.15011,0.032213,0.021591,0.0030665,-0.19192,0.024792,0.029217,0.027291,-0.014254,-0.22957,0.014605,0.021591,-0.10315,0.048778,0.074197,-0.25772,0.049704,-0.063105,0.017745,-0.1014,-0.13311,0.031518,-0.27655,-0.050147,-0.13006,-0.0053486,0.054255,-0.024419,-0.068453,0.0026328,0.029379,0.018479,-0.034258,-0.09824,-0.096421,-0.079094,0.017125,0.03225,0.051849,0.0030077,0.018118,-0.21871,0.053415,-0.032698,-0.084604,0.0027164,0.027085,-0.00047122,0.0044414,-0.10032,-0.14356,0.049062,0.050071,-0.082451,0.037818,0.049288,0.0099263,-0.0024724,0.012077,-0.24538,0.0014132,-0.04032,0.036515,-0.11852,-0.19681,0.050935,0.024325,0.025757,0.050638,0.033712,0.022455,0.031121,-0.30866,-0.00038976,0.075798,0.0018545,-0.22988,0.043842,-0.10783,-0.20059,0.048335,0.011895,-0.017797,0.066532,-0.018295,-0.14001,-0.15152,0.021828,0.045948,-0.0033246,-0.019883,-0.069423,0.022609,0.048908,-0.12691,-0.0013246,0.031565,-0.026433,-0.16637,-0.082196,0.045743,0.030524,0.016159,-0.15319,-0.087967,-0.19892,-0.034819,0.1018,0.060181,-0.17424,-0.094196,-0.010097,0.036912,0.04667,-0.16472,-0.0013792,0.022842,0.016749,0.0047481,-0.033375,-0.16481,0.023069,0.014839,0.0041526,-0.00073073,0.051506,-0.095382,0.025431,0.025784,-0.0089555,-0.061536,-0.13464,-0.18251,-0.0051243,0.034042,0.022718,0.022812,0.042102,0.034961,0.024354,0.022939,0.0023603,-0.13633,-0.050452,0.031384,-0.063288,0.008613,0.0044477,0.036415,0.030244,-0.13753,-0.071254,-0.27482,-0.24078,0.0025577,0.0015774,-0.17761,-0.17479,0.033477,-0.11514,-0.2591,0.052294,-0.01278,0.017518,0.02722,0.083156,0.048143,0.053182,0.018939,0.022085,-0.14013,0.021335,0.020333,-0.14813,-0.10068,-0.18202,0.014732,0.021491,0.058156,0.039062,0.0030461,-0.0097065,0.02661,0.015654,0.026631,0.0030268,0.036208,-0.0097074,-0.24483,-0.25398,-0.044569,-0.15868,0.025332,0.018186,-0.08952,0.071659,-0.00061159,0.013952,-0.031753,0.02915,-0.062589,0.026986,0.024228,0.041086,-0.11088,-0.16798,-0.051886,0.079534,-0.15219,-0.21306,-0.0035832,0.02444,-0.11931,0.022724,-0.19945,0.04729,-0.060811,0.064989,-0.00383,-0.0075184,-0.027161,0.015918,0.043671,0.0838,0.010881,-0.016322,-0.13303,-0.20524,0.028577,-0.15374,-0.0035725,-0.12579,-0.14711,0.01533,0.017712,0.06375,0.032114,-0.22253,-0.015595,-0.0025794,0.052276,0.015658,-0.10639,0.021674,0.060123,0.14504,0.047474,0.014302,-0.064162,0.0459,-0.14867,0.016799,0.02688,0.0059497,-0.31073,-0.059245,0.018314,0.015287,-0.030047,0.048743,0.00071193,0.013724,0.03053,0.043338,0.041517,0.035689,0.029763,0.008122,0.024413,0.023496,-0.10952,-0.011194,-0.1359,-0.18128,0.025255,-0.016477,0.026875,0.010975,0.002914,0.016997,0.017169,0.013671,0.056533,-0.33703,-0.029848,0.0054226,-0.0075266,0.022001,-0.16725,0.028485,-0.089127,-0.10791,0.029124,0.01502,0.034751,-0.034854,0.039401,0.036863,-0.20066,0.0051309,0.0010683,0.018602,0.046375,0.03212,0.011959,0.024399,0.0069131,0.026075,0.035844,0.015752,0.030103,0.058244,-0.026232,-0.012334,-0.18173,0.0069783,-0.12002,-0.024855,-0.011047,-0.15662,-0.18344,-0.18703,-0.048263,0.021579,0.044157,-0.17813,0.025236,0.02538,-0.14107,0.013298,0.021509,0.010021,-0.16033,-0.085965,0.021609,-0.091936,-0.063273,0.023053,0.021965,-0.20114,-0.1255,0.013817,0.043627,-0.24681,-0.0013344,-0.015453,-0.00076657,-0.093473,0.083167,-0.12972,-0.088133,-0.30124,-0.013137,0.05742,-0.19197,-0.13171,0.02817,0.041261,0.0085542,0.030956,0.089424,0.030274,0.007903,0.029439,0.01551,-0.043985,-0.031178,-0.25476,0.025694,-0.043671,0.0041073,-0.29514,0.026584,0.019186,0.018445,0.0092772,-0.013467,-0.095918,-0.071637,0.023166,0.0010793,0.046461,-0.10603,-0.057845,0.030861,0.024422,-0.0047498,0.033606,-0.1204,0.030793,-0.13797,0.034778,0.059352,0.063304,0.012547,-0.13563,0.01205,0.036703,0.017826,0.053146,0.024402,0.020727,-0.32371,0.020276,-0.17366,0.021996,0.098666,0.030535,0.021486,0.031411,-0.077939,-0.16984,0.026502,0.011163,0.018887,-0.17818,-0.16652,-0.021792,0.018475,-0.15242,0.034238,-0.069874,-0.061392,0.0032417,0.023842,-0.091136,-0.076508,-0.099907,0.040627,0.040926,0.028344,-0.012612,-0.0022465,0.0070096,0.030655,0.039353,0.01941,-0.11436,0.01449,0.018349,-0.00061516,-0.22457,0.012036,0.0044001,-0.0011895,0.037417,-0.012373,0.022858,0.023433,0.019721,-0.039044,0.020762,0.053974,-0.08454,0.026924,-0.11397,-0.05278,0.014418,0.059509,0.020443,-0.14574,0.0095541,-0.045391,0.025114,0.010644,0.019825,0.018306,0.025027,0.019184,0.084539,0.053714,-0.13115,0.043323,0.0099039,0.006336,-0.20991,0.015749,0.0051793,-0.10856,0.039436,-0.19158,0.041832,0.037864,0.016281,-0.16392,-0.13812,-0.24129,0.0066909,0.020327,0.014385,0.04436,0.008804,0.019914,0.043461,-0.083129,-0.066273,-0.10712,-0.011966,-0.11662,0.027691,-0.0062374,-0.032,0.065693,0.024836,0.015304,0.0015662,0.026962,-0.0050909,-0.0159,0.033381,0.004328,0.050254,-0.043948,-0.13463,0.00029301,0.033642,0.014393,-0.0015012,-0.0071448,0.021277,0.035544,0.044129,0.0076816,0.027891,0.022212,-0.069944,0.021686,0.032353,-0.20715,0.032911,0.030391,0.052849,0.004566,0.017849,0.039223,-0.017189,0.0019465,-0.11158,0.0038932,0.0098274,-0.10828,0.051785,-0.13055,-0.02128,-0.23722,-0.0031301,-0.075781,0.047352,0.020496,-0.11361,0.033954,-0.24469,-0.0039361,0.015857,-0.21806,0.028041,0.012589,0.04428,-0.073792,0.016378,0.025282,-0.23187,-0.22643,-0.2586,-0.20755,0.072274,0.011618,0.022403,8.9669e-05,0.0077294,0.00031507,0.020228,-0.0082714,0.027119,-0.019461,0.046441,-0.014319,0.031384,0.016082,0.068278,0.029487,0.0045003,0.044347,0.021972,0.040498,0.047936,0.070429,0.017691,-0.34973,0.047102,-0.094648,-0.20838,-0.067179,0.021047,-0.096387,0.025694,0.016258,-0.056458,0.048317,0.044286,0.039999,0.038541,-0.21429,0.012859,0.019749,-0.25078,-0.0098191,-0.17353,0.022277,0.057518,0.0042367,-0.0037749,0.027117,-0.17447,0.019444,0.0034056,0.0060024,0.012092,0.020372,0.049415,0.0021029,0.074277,0.054171,0.02515,0.012483,0.035266,-0.12543,0.030212,0.0090818,0.013672,0.058618,-0.064398,-0.028484,0.049402,-0.005811,0.029232,-0.025982,0.024871,0.022992,-0.077926,0.11803,0.041901,-0.149,-0.033742,0.046512,-0.031312,-0.038167,-0.2095,-0.14642,-0.0042475,0.014424,0.033972,0.032345,-0.10487,-0.051451,-0.019234,-0.15513,0.027656,-0.17196,0.010554,0.077558,0.0022216,-0.13543,-0.15848,-0.0026578,-0.19606,0.053208,-0.014614,-0.057135,-0.17558,-0.057375,-0.085114,-0.0679,0.010995,0.011125,0.009324,-0.11461,-0.1175,0.029937,-0.23436,0.046832,0.033529,-0.060456,0.010753,0.023189,0.02733,-0.030414,0.053789,0.04964,0.038031,-0.14677,-0.14385,0.034685,-0.1546,0.0040159,0.037938,-0.047569,-0.18626,0.0052725,-0.088933,0.021003,0.037282,0.030704,0.037305,-0.16465,-0.13259,-0.15818,0.053925,-0.091172,-0.19933,-0.15355,-0.12327,0.061295,0.025767,-0.049901,0.080242,-0.1474,-0.0033144,0.028494,0.02967,-0.040744,-0.15671,0.021891,-0.11977,-0.079222,-0.00701,-0.12111,-0.010876,0.015759,0.054325,-0.0044179,0.044429,-0.035778,-0.10293,-0.0095715,0.0054657,0.017913,0.084919,-0.008124,0.017144,-0.19209,0.025682,-0.023723,-0.04327,0.021154,0.044008,-0.2185,0.028373,-0.19584,0.029655,0.017799,0.004638,0.037303,0.087058,0.031096,-0.0032529,0.0056524,0.021719,0.053295,0.049651,0.031651,-0.2476,0.013993,0.017564,-0.0091367,0.0064997,0.032729,0.023928,-0.082683,-0.086493,-0.26059,-0.082284,0.061732,-0.14773,0.026449,0.064268,0.0057986,-0.074292,0.044687,-0.18211,0.03891,0.03614,0.0066512,-0.016803,-0.21844,0.017689,-0.11052,-0.12986,-0.15591,-0.13555,0.024725,0.04108,0.0070464,0.081624,-0.16671,0.010978,0.008403,-0.13458,0.042675,-0.16959,0.0058378,0.011265,0.033027,-0.12118,-0.26962,-8.983e-05,0.024442,-0.11389,-0.10352,0.0054101,0.031157,-0.0076043,-0.15566,0.0093038,-0.19665,-0.22886,-0.11591,0.023526,-0.04718,-0.083734,0.023267,0.069474,0.033255,-0.13,0.0049231,-0.13348,-0.015219,-0.090608,-0.11592,0.024704,0.053502,-0.16442,-0.0064878,0.032151,-0.24633,0.03087,0.050842,-0.014189,0.028079,0.050673,0.011799,0.012341,-0.087166,-0.084154,0.05025,-0.17729,-0.14004,0.038194,0.046143,-0.00040274,0.080898,0.014861,-0.068535,0.010623,0.026027,0.060477,-0.18768,-0.033103,-0.064465,-0.12348,-0.21106,0.040735,-0.064625,0.068714,-0.060239,0.015174,-0.0065163,-0.27057,0.014172,0.07053,0.095316,-0.087642,-0.18642,-0.14902,-0.1045,-0.061681,-0.046013,-0.0095935,-0.0007391,0.012449,0.015557,-0.20162,-0.12524,-0.097103,0.0086116,-0.010184,0.037066,-0.027525,0.029972,-0.26052,-0.1036,0.014368,0.0012787,0.022631,0.046241,0.010722,-0.11123,0.020941,0.02459,0.02707,-0.056615,0.039337,0.051733,-0.14504,0.031588,-0.25217,-0.21453,0.016322,-0.15063,0.022132,0.015891,0.14414,0.054178,0.024865,-0.12926,-0.002391,-0.16494,-0.015822,0.04143,-0.16318,0.0093967,0.029783,-0.32809,0.047059,9.1325e-06,-0.15291,-0.11559,-0.27663,0.005306,0.019003,-0.040201,0.009985,-0.14305,0.0065446,-0.22397,-0.099605,-0.013363,-0.17939,0.0063449,0.014079,-0.029778,-0.1647,-0.082659,0.0081661,-0.20631,0.041685,-0.002525,0.045009,-0.01178,-0.13867,0.069882,-0.1817,-0.014135,-0.0040734,0.036267,0.027533,-0.2725,0.04861,-0.080077,0.044203,-0.10478,0.050593,-0.22214,0.024986,0.040116,-0.15932,-0.25611,-0.26822,0.041259,-0.010907,0.048018,0.0152,0.004624,-0.20129,0.0024863,0.0554,0.036841,-0.0021296,-0.020508,0.017992,0.047419,-0.039518,0.023593,0.019279,0.019118,0.0066413,-0.0095575,-0.058255,-0.0075902,-0.071962,0.012687,0.031107,-0.024463,-0.24687,0.044548,0.035005,-0.0025377,0.057797,-0.10122,0.035728,0.045245,0.019918,-0.15838,0.0026869,0.0083333,0.011294,0.022162,-0.2376,-0.13128,-0.17168,0.044717,0.023084,0.021164,-0.030545,-0.15431,-0.12758,0.034283,0.036398,-0.01695,0.032568,0.039107,0.012707,-0.16024,-0.010899,-0.0036513,0.014728,-0.059572,-0.11513,0.029236,0.014038,-0.065838,-0.11961,-0.0754,0.036287,-0.15329,-0.17491,-0.1297,-0.12779,-0.12918,-0.19799,-0.037575,0.016125,0.026259,0.045088,-0.026016,0.047417,-0.14253,0.038921,0.016095,0.026527,-0.0053896,-0.017868,0.039567,0.0054654,0.029135,-0.13333,-0.038436,-0.077575,-0.043492,-0.21176,-0.10552,0.028671,0.02005,0.032027,0.026689,0.027035,0.0058235,-0.017923,-0.23885,0.021378,-0.045821,0.026951,-0.22485,0.013089,-0.041987,-0.0043492,0.026117,0.036609,-0.29358,-0.002695,0.0062507,0.0028836,0.0044452,-0.091635,-0.048122,-0.059879,-0.12582,-0.18704,0.011841,0.025607,0.031798,-0.17899,-0.058532,0.06638,-0.094265,-0.09167,0.017474,-0.22466,0.0026807,0.0091821,0.053505,-0.078855,0.024289,0.027625,-0.044448,-0.029548,0.0083138,-0.10664,0.0040017,-0.10455,0.024441,-0.089969,-0.023092,0.026001,0.0082636,-0.075047,-0.076124,0.018085,-0.21472,0.057552,-0.047248,-0.15481,-0.055706,-0.01562,-0.0037777,0.020683,-0.027264,0.036279,0.034949,-0.084686,0.016043,-0.0039083,-0.017996,0.024171,0.029863,0.01211,0.01872,-0.031036,0.021811,-0.0069007,0.01693,0.044946,-0.089056,0.094017,0.0019832,-0.011359,0.039959,0.04793,0.027815
-0.10095,0.017357,0.017565,-0.045651,0.065041,0.018919,-0.15104,0.029151,-0.22703,0.032856,-0.0054439,-0.03434,0.0097222,-0.072039,0.024888,0.029139,0.0090986,0.014137,0.048376,0.039908,0.015895,0.017483,0.0056752,-0.20206,-0.053207,0.020565,-0.053277,-0.20738,0.045758,-0.096344,0.054107,-0.11039,0.065407,0.015868,0.03874,0.043944,-0.079988,0.053691,0.00055743,-0.0052675,-0.0066342,-0.13179,-0.0078699,-0.36354,-0.29054,-0.06772,0.03624,-0.16708,-0.43135,0.060093,-0.14162,-0.017393,0.040343,0.040725,0.041101,-0.0010825,0.031828,-0.0011325,0.027976,-0.091662,0.0304,-0.30865,-0.030648,-0.074428,0.029805,0.080158,0.011142,0.03962,-0.13475,0.056996,-0.17188,-0.094933,-0.0020522,0.0080727,-0.28101,-0.01256,-0.072304,0.030173,-0.018452,0.080738,0.042128,0.0362,-0.27689,-0.11835,-0.0084155,-0.089497,0.096169,-0.011576,-0.00057693,-0.15006,0.023342,0.047572,-0.21169,0.041337,0.088453,-0.0636,0.031918,-0.040174,-0.15897,-0.32423,-0.19654,-0.33023,0.065206,0.028632,-0.081567,0.033995,0.040502,0.037385,-0.022489,-0.088232,0.045383,-0.058946,-0.12512,0.040325,-0.022793,-0.25486,0.027055,-0.13174,-0.19601,0.039748,-0.24664,0.023991,0.046264,0.028537,-0.15691,-0.010685,0.057075,-0.20698,0.0018137,-0.062767,-0.088496,0.029713,-0.0029204,-0.25649,0.012063,0.065318,0.057739,0.012175,0.011993,0.027164,-0.026973,0.053872,-0.018912,0.04211,-0.21408,0.044958,0.0094204,-0.33511,0.01507,0.11106,-0.16993,0.049481,0.025632,-0.0074869,-0.031741,-0.18344,-0.26926,0.11903,0.0071197,0.027364,0.004456,0.0072154,-0.052606,0.046304,0.054502,0.017587,-0.039778,0.053628,-0.14838,0.048018,-0.018438,0.036216,0.042684,-0.27162,0.022659,-0.16873,0.047291,-0.0089848,0.017535,0.044087,-0.22688,0.10857,0.014719,-0.038413,-0.059753,0.01066,0.019189,0.026516,0.020508,0.057606,0.04795,-0.10726,-0.0081541,-0.26025,-0.37861,0.035369,-0.0012293,0.0863,0.020317,0.052756,0.055056,0.021318,-0.0031916,-0.16778,-0.085392,0.087947,0.035917,-0.13129,-0.018568,-0.187,-0.15262,-0.15585,0.020164,0.0093215,0.043991,-0.047466,0.0042808,-4.5486e-05,0.012279,0.04395,-0.14795,0.018366,-0.17247,0.02004,-0.16809,-0.022677,-0.17704,0.039671,-0.1633,0.039158,0.057762,0.034114,-0.075862,0.0065686,0.044331,-0.03176,-0.073779,0.022988,-0.21463,0.045849,-0.1209,-0.0022553,0.024597,-0.11269,-0.0019834,-0.091404,0.029528,-0.12282,-0.089198,-0.28952,-0.2263,-0.069854,0.047768,-0.0012498,0.0056723,0.033909,-0.27739,0.020322,-0.060214,-0.21418,0.033927,0.02042,-0.05193,0.025604,0.031906,-0.0061341,0.066368,0.0034489,-0.023967,-0.27028,-0.019312,0.00086114,0.025039,0.010956,-0.21185,-0.13725,-0.28153,-0.17834,-0.0078286,0.053971,-0.079664,-0.28651,-0.1554,0.078075,0.013994,-0.074558,-0.14666,-0.13149,0.032946,-0.40589,0.048362,0.017834,0.0063645,-0.12355,0.022665,0.026369,0.046707,0.061723,-0.14929,-0.058865,0.048698,-0.27634,-0.28468,0.036471,-0.17909,-0.063067,0.012506,0.039038,-0.012885,0.038405,0.013866,-0.25441,0.031193,0.005341,0.029566,-0.21801,0.061205,-0.20258,-0.22639,-0.052176,0.047822,-0.10987,0.0015312,-0.16176,0.0075965,-0.0028948,-0.11218,-0.0020217,0.023752,0.00030561,0.03721,0.019247,0.017228,0.027577,-0.30333,-0.0045195,-0.035085,0.057523,-0.065999,0.029206,0.044651,-0.36525,-0.0035649,0.064456,0.019145,-0.13934,0.042569,0.035778,0.055046,0.016809,0.011974,-0.1792,0.020007,0.038486,0.03211,0.024714,0.018851,0.023,0.058557,0.047087,-0.053216,-0.27789,0.070402,-0.011105,-0.090636,-0.0087685,-0.16638,-0.081352,-0.32645,-0.21945,-0.088256,-0.14324,0.02971,-0.31776,0.0092319,0.039114,-0.091473,-0.30382,-0.06564,0.03713,0.015447,0.059437,0.013853,-0.012844,-0.00094075,0.064589,-0.32028,-0.16838,-0.25029,-0.23017,-0.012349,-0.023218,0.014073,0.043333,-0.0055273,-0.12244,0.0062508,0.043538,0.040855,0.021161,0.036584,-0.23082,0.019859,0.0060242,0.022735,-0.18975,0.01094,-0.20774,-0.11176,0.037727,-0.27774,-0.090043,-0.0080196,0.0046701,0.061238,-0.01364,0.020882,-0.058387,0.0031164,-0.20323,-0.28925,0.036754,-0.30829,0.017483,0.0044323,-0.0061855,-0.057143,-0.12225,-0.14457,-0.13249,-0.28436,0.010037,0.023661,-0.049631,-0.14723,-0.012822,-0.16968,-0.21657,-0.20846,-0.2121,0.027035,0.015423,-0.13521,0.047046,0.047747,0.0028636,-0.052033,0.060208,-0.020961,0.014607,0.07122,0.0017802,-0.13293,-0.01061,-0.16063,-0.10233,0.018419,0.045924,-0.24689,0.09931,0.0090603,0.032188,-0.18885,-0.16561,-0.18192,0.022649,0.044639,-0.00060098,-0.16786,-0.12253,-0.29022,0.04116,0.025003,0.023643,-0.13584,0.030759,0.0072817,-0.067149,0.0010799,-0.012535,0.057305,0.057655,0.0049176,-0.31475,-0.10886,0.064032,0.047682,-0.097904,-0.1977,0.046001,0.050074,-0.16768,0.0058398,-0.13871,-0.086683,0.052085,0.069787,-0.020415,0.031476,0.027759,0.030795,0.044832,0.022482,-0.0051979,-0.111,-0.18463,-0.15541,0.065041,-0.075019,-0.33608,0.0323,-0.13668,0.036257,0.061936,-0.11314,-0.3217,-0.0063037,0.0055279,0.019492,0.033704,0.026406,0.054497,-0.002938,0.038455,0.012479,0.078986,0.032463,-0.29633,0.0027318,-0.25526,-0.28434,0.021251,-0.21726,0.046634,-0.0065911,-0.096226,-0.016379,0.040439,0.085914,0.047116,-0.09233,0.041363,-0.30656,-0.1949,0.093147,0.025041,-0.033245,-0.20324,-0.17122,-0.17321,0.0072967,-0.073239,0.014238,-0.21563,0.019397,-0.16739,-0.13034,0.059206,0.047994,-0.11058,-0.0026899,-0.10855,0.042624,-0.10009,0.054899,0.0178,-0.00094937,0.015434,0.028406,-0.18483,-0.27253,0.038603,0.036588,0.023274,0.028112,0.028607,-0.26699,0.030489,0.031054,0.023953,0.048644,0.09319,0.051717,-0.098453,-0.021799,0.064174,-0.10872,-0.0036228,-0.17468,0.020164,0.03873,0.027122,0.044164,0.015577,-0.072158,-0.086348,-0.18699,0.091852,0.074828,-0.0088455,-0.0049124,0.070484,-0.097491,-0.20713,-0.14869,-0.016508,-0.17074,0.056956,0.040549,-0.15877,0.017939,0.034397,-0.12059,0.0030177,-0.1582,0.051805,0.049589,0.0068722,-0.14063,-0.00086726,-0.16172,0.0056505,-0.077077,0.011654,0.0086695,0.038213,0.037353,-0.15148,-0.010914,-0.14007,0.046555,0.0054052,-0.050271,0.072407,-0.14669,0.055903,0.032951,0.046285,0.041028,0.034542,0.10739,0.077443,-0.21118,-0.099531,0.047507,-0.15515,0.026587,0.029909,-0.013396,-0.28015,-0.3068,0.051506,0.049022,0.025514,0.013095,0.03491,-0.11893,-0.04944,0.017836,0.046596,0.043355,0.044475,0.037505,-0.11262,-0.20456,0.0015915,-0.030819,0.037396,0.046203,0.012163,-0.18271,0.068394,0.018439,0.01736,-0.28501,-0.31733,0.036506,0.0051243,0.042,0.016936,0.044833,0.016698,0.0084364,-0.014118,0.047376,0.016137,0.040141,-0.2929,-0.0021078,0.073704,-0.23839,0.024112,0.030751,0.043241,0.020897,0.011409,-0.10322,-0.015803,0.033933,-0.065352,-0.073279,0.0095376,-0.2932,0.048531,0.028949,0.085829,0.0063686,0.018438,0.022897,-0.24695,0.014193,0.015597,-0.018882,-0.1185,-0.27262,0.00034473,0.00015633,-0.11594,-0.0088882,-0.16774,-0.19783,0.06287,0.042868,0.019035,-0.2258,-0.22698,-0.00072771,-0.21254,0.0089705,0.075551,-0.073116,0.016658,-0.20871,-0.19982,-0.23528,0.0092946,0.053446,-0.075415,-0.015077,-0.10712,0.023179,0.03149,-0.10771,0.04713,-0.11261,0.054828,-0.044755,-0.070021,0.00070632,0.02137,-0.16026,0.032085,0.053011,0.076647,0.017196,0.012722,-0.043875,0.042663,0.022371,0.061144,-0.19452,0.0020107,0.00016486,0.011841,-0.046338,-0.0595,-0.012682,-0.037788,-0.20895,-0.345,0.034492,-0.31321,0.0088404,-0.28998,-0.045803,-0.16852,0.062698,-0.30219,-0.19618,0.046385,0.047304,-0.22504,0.04902,-0.19215,0.0095479,-0.083453,0.037061,0.037797,0.0092427,0.019226,0.080593,-0.00043015,0.04516,-0.1152,0.017363,-0.27959,0.11495,0.04244,0.049654,0.026971,0.049064,0.062367,-0.037517,0.07801,-0.00058864,0.077382,0.041662,-0.27088,0.03529,-0.054528,0.012096,0.041654,-0.0076739,0.05297,-0.0071826,-0.098867,-0.1874,0.037039,-0.18009,-0.18592,-0.24421,-0.0010522,-0.10173,-0.00076778,-0.2476,-0.019261,0.054407,-0.0007439,-0.086422,0.047985,0.047013,0.067967,-0.27347,0.035542,0.019508,-0.27133,-0.015585,-0.00142,0.01867,-0.013245,0.0092987,-0.024948,-0.00022427,-0.015525,0.019228,-0.18871,0.046148,0.059549,-0.16534,0.0042018,0.049455,0.0024249,0.028887,-0.13005,0.053526,0.005008,0.026715,0.1007,-0.17091,-0.16086,-0.22678,0.060633,0.0071394,0.0050568,-0.2122,0.055714,-0.26886,-0.027197,0.054876,-0.011505,0.062287,0.024332,-0.062464,-0.0064868,0.010688,-0.013614,0.010891,0.024264,-0.079848,0.017056,-0.031418,0.029305,0.016401,-0.10963,0.0078566,-0.034531,-0.22947,-0.24637,0.022877,0.0049943,0.070994,-0.0909,-0.25696,0.03232,-0.15139,0.0028677,0.012347,0.03785,0.024186,0.033816,0.040579,0.031629,-0.11596,-0.084828,0.0070244,0.04443,0.04384,-0.2261,-0.18042,-0.04743,0.039186,0.01647,0.020591,0.0093136,0.039553,-0.2676,0.029577,-0.07794,0.02731,-0.15536,0.0028444,0.010413,-0.052836,0.029797,0.016132,0.032455,-0.013285,-0.20609,0.0030653,-0.018189,-0.010132,-0.04008,0.027445,-0.046939,-0.2214,0.043629,0.042502,-0.12806,-0.14548,0.0011193,-0.0028398,0.034916,0.022087,0.030928,-0.061486,0.038456,-0.0012729,-0.15164,-0.15181,0.067509,0.029505,-0.0050287,0.044169,-0.065044,0.054932,-0.23423,-0.034365,0.0020747,0.057019,-0.016187,-0.13107,0.037095,-0.12135,0.079204,0.027087,0.016777,0.093093,0.0026442,-0.31948,0.089598,-0.012052,-0.17767,0.021193,-0.13701,0.020155,-0.18452,-0.10477,-0.052997,-0.01765,0.039255,-0.14286,-0.052034,-0.27286,-0.30381,0.053671,0.04775,0.021159,-0.21503,0.0087421,-0.088607,-0.21734,-0.0087841,-0.034348,-0.053538,0.016603,-0.16254,0.031211,-0.070728,0.019912,-0.17359,0.012886,0.044416,0.0079964,0.00288,-0.029869,0.031546,0.028535,-0.21893,0.06735,0.050289,0.010057,0.002588,0.057752,-0.16782,0.061042,0.035375,-0.21582,-0.0030032,-0.098948,0.052256,-0.15631,0.0057187,0.023542,-0.077092,0.033385,-0.16698,-0.061048,0.052699,-0.12792,0.041054,0.0081039,0.012679,-0.24919,0.026125,0.0060141,-0.1702,-0.0020064,-0.036494,0.018105,0.063356,-0.029764,-0.0063842,0.013001,-0.095454,0.0083638,0.044201,0.010792,-0.0009334,0.030393,-0.21303,-0.087285,0.022594,0.013063,-0.004349,-0.026506,-0.0020518,0.032332,-0.043281,0.039748,-0.0229,-0.18654,-0.0085016,0.033428,0.030775,0.068481,-0.18398,-0.054154,0.041449,0.044646,-0.033678,0.062119,0.056587,-0.013977,0.015787,-0.17065,0.042507,0.035059,-0.0958,-0.13891,0.043313,0.020282,-0.00098898,0.019644,0.017524,0.06903,0.023129,0.045791,-0.13032,0.0015967,-0.18868,-0.055145,-0.11077,0.022485,0.072731,0.012519,-0.0085451,-0.025101,-0.2351,0.030329,0.047748,0.059989,0.010001,-0.14576,0.012415,0.059248,0.055089,0.0052382,-0.034651,0.03491,-0.0092729,-0.0023015,0.10179,0.0050056,0.04157,0.041599,0.034395,0.029808,-0.20753,0.015375,0.026994,0.017999,-0.23828,0.013165,-0.11987,-0.0078172,0.014095,0.058163,0.047374,0.035209,-0.01204,0.012664,0.054803,0.030666,-0.20064,-0.11325,-0.171,-0.24517,0.055715,0.012524,0.0069552,0.01462,-0.05586,-0.040305,0.034209,-0.053783,-0.12207,0.046801,0.02617,0.016473,-0.30504,0.017761,0.016623,-0.0020657,-0.012487,-0.053316,0.022009,-0.016948,0.014323,0.0097574,-0.3586,0.11424,0.051989,-0.14313,0.012876,-0.0079659,-0.19752,0.084539,0.048007,0.055259,-0.015066,0.045977,0.033676,0.025365,-0.21034,0.0084511,0.020516,0.038118,-0.074018,0.052151,0.055287,-0.13504,-0.18142,-0.086449,-0.18207,0.052629,-0.079709,0.014762,0.029382,0.018692,-0.014092,-0.21201,-0.19095,0.045511,-0.062229,0.037537,-0.1031,0.036942,0.0070412,0.019795,0.035636
0.050973,-0.11243,0.027406,0.046372,-0.12116,0.039586,-0.0046054,0.053444,-0.009185,0.0074124,-0.012318,0.052423,-0.23885,-0.38003,-0.037926,0.036942,0.030797,0.034623,-0.0014486,-0.1348,0.048198,0.055724,-0.0040151,0.011635,-0.11988,0.012118,0.02221,0.010244,0.043923,-0.25261,0.007899,-0.0041972,-0.066228,0.033647,0.058145,-0.1646,-0.22091,0.0019235,-0.13748,-0.0041216,0.011445,-0.0014839,-0.20839,0.0071634,0.015531,-0.058607,0.054039,0.014519,0.024298,0.018379,0.015963,-0.1965,3.7817e-06,0.0028281,-0.15526,-0.21219,0.031939,0.038704,0.052226,-0.11745,0.03642,-0.37378,0.034493,-0.21585,0.021721,0.03979,0.017534,0.00357,-0.0074199,0.023155,0.0015063,-0.2579,0.016997,0.034302,-0.18379,-0.13576,0.040457,0.076289,-0.2733,-0.0024187,0.0040532,-0.26229,0.025275,-0.20936,-0.23056,-0.0086268,-0.27378,-0.12589,0.08754,-0.002977,-0.016154,-0.009948,-0.36075,0.0094176,0.045802,0.041654,-0.18314,0.014241,-0.15777,0.0074816,-0.28815,-0.072821,0.027903,0.044557,-0.016335,0.038667,0.010108,0.05146,0.030964,-0.075558,0.020521,-0.2121,-0.015389,0.044701,-0.34282,0.024395,0.050803,0.0027245,-0.2068,0.040592,0.010326,0.051221,0.03785,0.015568,-0.023382,0.014156,-0.043399,0.011781,-0.17806,0.054936,0.0080292,0.023806,-0.10737,-0.1583,0.0085229,0.061526,0.044816,-0.071694,-0.12833,0.036257,0.0046953,-0.00716,-0.31007,-0.012697,-0.32461,-0.15091,0.019561,0.0028033,0.049068,-0.21544,0.034675,0.030465,0.082662,0.0333,0.059326,-0.069115,-0.32543,-0.016606,-0.11662,0.028107,-0.014191,0.030842,-0.16613,0.044207,0.041052,0.072398,0.031632,0.0053336,-0.023204,0.059025,-0.13491,0.046533,0.054184,0.0027002,0.034865,-0.10556,0.041731,-0.17889,0.032263,0.038466,-0.33529,-0.027274,0.068762,-0.096733,-0.099298,0.082968,0.03479,0.011917,-0.10191,0.032037,0.072404,0.060183,-0.12732,0.018824,0.031158,-0.015269,-0.10427,0.077532,-0.18908,0.012482,0.033326,-0.22041,0.019041,0.033173,0.015905,0.04241,0.038464,-0.21701,-0.11897,0.023962,-0.17438,0.0011826,0.047797,0.015238,0.014096,-0.058738,0.027143,-0.13709,0.011029,0.066148,-0.15931,-0.16224,-0.20088,-0.14735,0.02359,-0.0026752,-0.032095,0.047214,0.035417,0.048825,0.03429,-0.003022,-0.091753,-0.010537,-0.26183,-0.1051,-0.0057984,0.034116,-0.30049,-0.22085,0.027624,-0.20892,0.0087161,-0.1821,0.028498,-0.027725,0.0079877,-0.20884,0.0156,-0.084789,-0.0012544,-0.13558,0.019323,0.017266,0.061907,0.035789,-0.40263,0.045053,0.0091082,0.0074454,-0.0039539,-0.0055099,0.003877,0.017228,0.03378,-0.32748,0.059606,0.012132,0.10027,0.0094893,-0.10516,0.046078,0.025005,0.047542,0.030333,-0.095091,-0.092409,-0.22415,-0.28188,0.096851,-0.011084,0.018302,-0.14316,-0.13811,-0.0058089,-0.10056,-0.041401,0.068871,0.056864,-0.010836,0.019066,0.041667,-0.091362,-0.007981,0.062149,0.029363,0.049959,0.054184,-0.064593,-0.082665,0.013433,-0.33662,-0.012926,0.047806,0.085965,0.025124,-0.22076,0.033263,0.0057647,-0.26347,0.043765,-0.07545,0.063687,0.015024,0.046562,-0.0080338,0.037417,-0.0082822,-0.216,0.050599,0.042079,-0.025295,-0.15537,0.017647,-0.3205,-0.016975,0.042072,0.065794,0.037854,-0.18,0.060199,0.027435,-0.17908,0.010218,-0.019522,-0.01326,0.041091,-0.048662,-0.070657,-0.21757,0.053618,-0.046308,-0.27894,0.023395,-0.28512,0.0019218,-0.093958,0.04563,0.024834,0.030347,-0.094082,0.0024116,0.093003,0.031343,0.041791,-0.13003,-0.025941,0.0022195,0.0099601,0.017808,-0.12209,-0.0049559,0.037937,-0.16035,-0.18719,0.091563,-0.058507,-0.37826,0.0078563,-0.2251,0.027996,-0.18138,0.021716,-0.067679,-0.12896,0.072073,-0.0022436,0.020004,-0.14962,0.035737,0.064852,0.03384,-0.22613,-0.20443,0.036501,0.095345,-0.022368,-2.7523e-06,-0.0074034,0.00012443,-0.07197,-0.0059807,-0.32552,0.029273,0.024321,-0.00087448,-0.29963,-0.17195,-0.10488,0.050552,0.010863,0.14345,0.024702,0.014635,0.028711,-0.023558,-0.16172,-0.1559,0.042837,0.028964,0.018781,0.0056101,0.0094312,-0.22501,0.072607,0.0084205,0.043089,0.10862,0.04988,0.039772,-0.043447,0.038362,-0.21947,0.06526,0.013669,-0.21887,0.0085603,-0.1281,0.0073085,-0.13657,-0.26004,-0.20828,0.046554,-0.10866,-0.098704,0.040191,-0.026882,-0.27897,-0.0020067,0.021665,0.0086149,-0.17751,0.013396,0.011415,0.049119,0.01555,-0.013407,0.053774,-0.16726,0.054886,0.06026,0.0090473,-0.02394,-0.26865,-0.05856,-0.053936,0.014989,0.044135,-0.14774,0.0072953,-0.01312,0.0096497,-0.35687,-0.18588,-0.20939,0.0067282,0.061476,0.011996,-0.14383,0.068818,-0.30216,0.044918,-0.091131,-0.13969,-0.06215,0.011393,0.006747,-0.05215,-0.10598,0.017049,0.028685,0.026317,0.077824,0.010855,-0.27711,0.057146,0.11898,-0.18025,0.038746,-0.12255,0.048174,-0.01938,0.013126,0.019599,0.030985,0.040376,0.036345,-0.097575,0.054008,-0.29138,0.04832,0.0096861,0.051302,-0.33177,0.012126,-0.0030377,-0.033723,0.0043554,-0.22049,-0.0031969,0.028384,-0.096851,0.0062623,0.038089,-0.054466,-0.26382,-0.080551,0.065117,-0.01548,0.054777,0.032532,0.038526,0.023813,0.027663,0.036814,-0.11162,-0.16267,0.0024315,0.046305,-0.31808,0.022204,-0.048436,0.031522,0.016277,0.0089795,-0.10349,-0.28647,-0.18025,0.080802,0.025159,0.023533,0.054447,-0.28385,-0.22697,0.094416,0.0068559,-0.15992,0.010673,-0.089401,0.12764,-0.019569,-0.06628,-0.023842,0.02241,0.019747,-0.019164,-0.0045602,0.027533,0.033652,-0.014502,0.022188,-0.26604,0.036685,0.18689,0.021606,0.056575,0.022019,0.039969,-0.0031936,-0.1088,-0.16697,0.060224,0.048546,-0.17433,0.025304,0.050554,-0.14762,0.056426,0.00025656,-0.20116,0.073759,0.017456,-0.044136,-0.18248,-0.079313,0.018491,-0.039371,0.044211,-0.0053194,-0.21231,0.029517,-0.25326,0.02055,-0.019608,-0.062368,0.023585,-0.21893,0.051349,0.012926,0.034802,-0.267,0.034792,-0.30586,-0.1629,-0.031367,0.01497,0.0090578,0.012224,0.042206,-0.076911,0.042569,-0.18324,-0.39085,-0.2096,-0.28877,-0.012831,0.006505,0.0086829,-0.061205,0.026,-0.098265,0.033976,0.052868,0.026705,-0.13157,-0.079336,0.041757,-0.028039,-0.27097,0.013288,0.021811,0.031237,-0.074378,0.062075,-0.19694,0.0063751,-0.046335,0.04441,0.0080644,0.022135,0.022768,-0.10179,-0.33494,-0.1884,0.0065151,0.066884,0.040943,-0.15485,-0.29819,0.018087,-0.027319,0.02384,-0.00015515,0.0095526,0.0045174,0.024927,-0.35273,-0.072283,0.064508,0.043973,0.021383,0.058181,0.012075,0.0563,-0.0027677,-0.037748,-0.12422,-0.073566,-0.13139,-0.18545,0.012151,-0.013651,-0.2393,0.052343,-0.10843,0.0054686,0.034365,-0.020436,0.024712,0.052072,0.049954,0.041645,-0.29226,-0.026803,0.047382,0.0070275,0.010103,-0.26096,0.10317,0.050195,-0.29047,-0.002664,0.032654,0.041459,0.04316,0.034242,0.015287,0.0094307,0.11925,-0.14665,0.043843,0.0065175,0.024544,0.028762,0.017243,-0.13333,-0.28601,-0.13875,0.072243,-0.27642,-0.27209,0.028786,-0.012315,0.041325,0.0066802,-0.26112,-0.014948,-0.17877,-0.14937,-0.027933,-0.0059586,-0.025245,-0.15548,0.024401,-0.017046,-0.0076116,0.028948,-0.35026,0.0069901,0.04343,0.001653,0.0046269,0.0052338,0.029579,0.021127,-0.30938,0.028602,-0.00046213,0.030151,0.018718,0.034427,-0.018839,-0.14811,0.01887,-0.14474,0.017376,0.019936,0.0060211,0.010993,-0.21703,-0.30462,0.041943,0.007658,0.020493,-0.19133,0.022416,-0.2093,-0.26982,0.019078,0.051386,-0.0072921,-0.005228,0.0029166,0.041747,0.06319,0.0086218,-0.0023333,0.003393,-0.16538,-0.0038111,0.073924,0.0019135,-0.22664,0.0024367,-0.020761,-0.058383,0.038929,0.0096315,-0.060324,-0.16462,0.034047,-0.17221,0.020611,-0.037537,-0.17268,0.019753,0.025754,0.030829,0.029483,-0.074206,0.032448,-0.009535,0.040033,0.01697,0.02782,-0.0021243,0.026288,0.003366,0.032577,0.058084,0.06012,0.045809,-0.11347,0.029735,0.024399,0.081696,0.015638,-0.0019467,0.040639,-0.17936,0.028678,0.018492,-0.0026294,0.035131,-0.12955,-0.05303,-0.073438,0.015885,-0.03509,-0.14351,-0.0052432,0.0054343,-0.11756,0.026101,-0.20361,-0.059669,0.12339,-0.0011189,0.010864,0.032113,0.0518,0.038754,-0.029606,0.01385,-0.033068,0.046537,-0.28294,-0.164,-0.22376,0.010762,-0.16057,0.0083828,0.037827,-0.33928,0.053675,-0.24369,0.0062137,0.056115,-0.1538,0.036684,0.044824,-0.26995,0.030931,0.043291,-0.24427,0.02049,-0.26912,0.061254,-0.31036,-0.0036754,-0.22042,0.036076,0.0057381,-0.096622,0.0025401,0.027621,0.015896,-0.30295,0.055908,-0.0071419,0.087193,0.045131,-0.041239,0.048601,0.059015,-0.14341,-0.23629,-0.10968,-0.011732,0.012636,-0.1312,0.044722,-0.28358,-0.19265,-0.016911,-0.0040572,0.032676,-0.0075326,0.021378,0.0091543,0.05942,0.047604,-0.24725,0.040201,-0.0096363,0.024318,0.049369,-0.18084,0.024514,0.0090417,-0.21359,0.041239,-0.026467,-0.010244,-0.3183,0.0077288,0.077457,-0.0077776,0.010697,-0.16823,0.023857,-0.035948,-0.01131,-0.016012,0.024283,-0.19977,0.033124,-0.1559,0.056483,-0.1776,0.018453,-0.3202,-0.0056425,0.035466,0.0218,0.06044,-0.11673,-0.058541,-0.083319,-0.13919,0.012142,-0.079583,0.042258,0.020679,-0.023871,0.024897,-0.085762,0.0050706,0.012192,0.051191,-0.044807,0.082613,-0.0019187,0.05346,-0.0025402,0.0018553,-0.22751,0.025592,-0.13946,0.055109,0.036778,-0.17911,0.025786,0.010781,-0.016543,0.0099831,-0.0073407,-0.016028,0.02821,-0.30004,-0.23575,0.014133,0.084382,0.032616,-0.26024,0.034845,0.047747,-0.17808,0.0076149,0.014456,0.052402,0.036507,0.061804,0.029466,0.060523,0.0033576,-0.27011,-0.1873,-0.011876,0.004567,-0.1287,0.0038191,-0.22359,0.015611,0.039291,-0.026364,0.007707,-0.092226,0.005239,-0.24134,-0.0113,-0.0011565,-0.21758,-0.025655,-0.025159,-0.25066,0.043398,0.00092339,-0.00043885,-0.13835,-0.0020842,0.037715,-0.0039885,-0.091311,0.0043612,0.042742,0.040974,0.004332,0.055258,-0.074787,0.028541,-0.14704,0.035467,0.0025132,0.015643,0.02977,-0.316,0.014174,0.011697,0.03994,-0.035517,0.027605,0.069924,-0.096727,-0.027932,0.073075,0.042466,0.015152,-0.068696,0.024316,-0.12868,0.091491,-0.095731,0.041344,0.00088517,-0.21294,-0.18769,-0.24373,-0.25009,0.033858,-0.32386,-0.16818,0.0053324,-0.11077,-0.23762,0.027536,0.05895,-0.325,0.036155,0.024487,-0.13843,0.042726,0.062145,0.028463,0.0084364,-0.018248,0.045358,-8.907e-06,0.056023,-0.15626,-0.33237,-0.37491,0.040551,0.016271,-0.091572,0.044488,-0.028636,0.038718,0.019852,-0.050002,0.047824,0.039521,0.017066,-0.2826,-0.19988,0.086014,-0.15123,0.026202,-0.081644,0.067237,-0.0062976,0.018836,-0.0048275,-0.25274,0.050908,0.030475,0.0095797,-0.28216,-0.25209,-0.076812,-0.24263,0.01976,0.048898,0.032298,0.063099,-0.3783,0.036888,0.019996,0.01346,0.0075222,-0.10315,0.010305,-0.0697,0.025592,0.064304,0.02324,0.015446,-0.22585,0.02928,-0.022754,0.041381,0.041245,0.039809,0.028401,0.024426,0.062135,0.015442,-0.0097224,-0.12514,0.025811,0.026815,-0.092783,0.014269,0.021088,0.0020921,-0.2024,-0.10406,-0.057023,0.024412,0.024188,-0.02292,-0.0032917,0.015056,-0.16587,-0.0011085,0.0017982,-0.13542,0.10111,-0.14457,0.060625,0.041744,0.021893,-0.28349,0.0033652,0.066136,-0.29049,-0.20534,-0.22208,-0.1636,-0.072073,0.0057236,0.037827,-0.035379,0.029706,-0.1459,0.014987,-0.11506,0.013749,0.0066565,-0.39439,0.06525,0.027625,-0.22335,0.014655,-0.34039,-0.27207,0.028144,0.053702,0.045268,-0.079074,0.018188,-0.10905,-0.31123,0.019259,-0.119,-0.020416,0.052188,-0.099668,0.081162,0.028382,-0.080577,-0.28113,-0.275,-0.026427,0.017256,0.022361,-0.29966,-0.24687,-0.044983,-0.19843,0.012369,0.036476,0.0095363,-0.081474,0.059506,-0.19287,0.040544,0.065982,0.024527,-0.014191
0.033362,-0.11322,-0.092491,0.021852,0.040912,0.041226,-0.38064,0.0088002,-0.14342,0.017522,0.006471,0.043692,-0.11903,-0.0027341,0.031165,0.013943,-0.39886,0.071867,0.045434,-0.034378,0.069747,0.024233,-0.2516,-0.26284,0.03684,0.013852,-0.18612,0.017382,0.011931,-0.006682,0.034375,-0.0065898,0.062634,0.034517,0.089953,0.017813,-0.25373,0.037432,0.028435,-0.28577,0.057291,-0.17574,-0.25968,-0.20213,0.0050011,0.010189,0.050238,0.035983,-0.013802,0.031176,-0.0060237,-0.016294,-0.14331,0.024648,-0.08812,-0.055901,0.041577,0.036964,0.022708,0.0035451,-0.42552,-0.082146,0.036744,-0.014157,0.017687,0.0066163,-0.19848,0.048295,-0.11182,0.054927,-0.023288,0.025262,-0.085703,0.0349,0.047339,0.025804,0.0028495,0.028644,-0.19603,-0.0019697,-0.18229,-0.035463,0.029392,-0.16105,0.010245,-0.26356,-0.10753,-0.14478,0.057943,0.016691,0.030047,0.011549,-0.17344,0.015959,0.0048092,-0.17985,0.011675,-0.13708,-0.18728,0.030124,-0.07851,-0.22364,0.033849,0.050651,-0.2823,-0.039404,0.017954,0.10341,-0.011767,-0.020711,-0.33701,-0.076596,0.016497,0.019281,0.0035441,-0.20467,0.033887,0.060085,0.036786,0.030135,-0.14117,0.031354,0.028476,-0.28947,0.047267,0.062169,-0.014645,-0.12686,-0.028448,-0.099331,0.0029794,0.057586,-0.078025,0.013931,-0.07548,0.010811,0.023406,-0.0057043,-0.23887,0.029263,-0.010958,0.012301,-0.10561,-0.10405,0.097308,-0.0064314,-0.1486,-0.22931,-0.2077,0.033852,-0.04992,0.038951,0.041067,-0.086163,-0.15274,-0.089883,-0.11034,0.067676,0.044048,-0.32667,-0.01803,-0.18776,-0.0037834,0.010638,0.040698,-0.04881,0.047636,0.02004,0.021882,0.049466,-0.081132,0.020328,0.023251,0.034869,-0.19981,-0.15577,0.029033,-0.07483,0.019808,0.037024,-0.092021,0.010196,0.034128,-0.059869,0.00030307,0.021805,-0.086739,0.026432,-0.09304,0.035756,-0.11771,-0.1206,0.0003107,-0.2968,-0.018562,0.06752,-0.10415,0.017038,-0.16182,0.048284,0.037812,-0.0087896,-0.06623,-0.18617,-0.20536,0.0045225,0.032221,-0.0036382,-0.0062232,0.01475,0.00094847,-0.25456,0.038403,0.011083,0.024801,-0.011467,-0.16305,-0.11227,0.015345,0.069099,0.0073435,-0.12939,-0.07687,0.029471,-0.086935,-0.42636,-0.16754,0.022188,0.036682,0.073429,0.034591,0.038279,-0.048272,0.01201,0.040457,-0.05489,-0.038818,-0.015672,0.036547,-0.072216,0.02608,0.00901,0.017453,-0.059935,-0.2451,-0.06987,0.026949,0.043575,0.020456,-0.028451,-0.060922,-0.080037,0.055647,-0.025202,0.033043,-0.084882,0.015914,0.027771,0.030607,0.011482,-0.18247,-0.082184,-0.13877,0.0069855,0.053577,-0.16953,0.086039,-0.33138,0.072804,0.039084,-0.024612,0.027759,0.013244,0.03699,-0.029395,-0.13316,0.0072508,-0.011068,0.022504,-0.21417,-0.27823,-0.12291,-0.033585,0.030905,-0.23876,-0.062061,0.035317,0.040057,-0.069456,-0.0059807,-0.087046,0.0077654,0.0066801,0.027463,0.034514,-0.26199,-0.068655,0.050867,-0.010761,-0.1315,-0.094488,0.02326,0.03183,0.0535,0.034836,0.014672,-0.12428,0.020753,-0.15646,-0.18712,0.052606,0.016372,0.037519,0.00063738,0.042977,-0.13998,0.011082,-0.045906,0.045356,-0.33317,0.027779,-0.0092335,0.046453,-0.27767,0.0053707,-0.090079,0.014369,-0.020393,-0.054954,-0.11175,0.082436,-0.095095,0.051946,0.041134,-0.23684,0.016133,0.094032,-0.092956,-0.006942,0.024312,0.025879,0.0014696,0.027973,0.096261,-0.0039339,-0.24253,0.061892,0.067198,0.027111,0.043852,0.016086,0.025151,0.0050795,0.040934,0.054682,-0.056773,-0.23547,0.017289,0.029184,0.020746,-0.043097,0.017741,0.014398,-0.10555,0.047495,-0.15485,0.046615,-0.13504,-0.0096296,0.012144,-0.2354,0.01327,-0.081278,0.037979,0.047938,0.06067,-0.21272,0.037916,0.070706,0.020338,-0.15869,0.039903,-0.11029,-0.12116,0.030416,0.053548,-0.18523,-0.031233,-0.07926,-0.0027761,-0.27827,-0.093046,-0.036824,0.018983,-0.24156,-0.02175,-0.0046437,0.043914,0.0023324,0.050229,-0.25156,-0.15856,-0.33503,-0.019189,0.045815,-0.056772,0.038798,0.0022525,-0.017069,0.05132,0.04186,0.04152,-0.0055447,0.038886,0.048891,-0.12538,-0.067765,-0.27709,-0.31294,-0.020651,0.0043031,0.029729,0.0022821,-0.13046,0.0071846,-0.02171,-0.2207,0.047383,-0.1519,0.019243,0.0038604,-0.088906,0.024227,0.021447,-0.12659,-0.027819,-0.073179,-0.007894,-0.079778,-0.39739,-0.24867,-0.16677,0.039893,0.034575,0.027319,0.060788,0.021037,0.025017,0.01735,-0.084434,-0.010215,0.032859,-0.079545,0.049347,0.018863,0.016908,-0.037624,-0.071526,0.00891,0.0044333,0.024796,0.0066028,0.024662,-0.0061526,0.014334,0.027922,-0.00032046,-0.011518,-0.075014,0.04283,-0.23874,0.031644,0.035793,0.040353,-0.0062797,-0.14244,-0.040447,-0.013666,-0.0051694,-0.18739,0.041014,0.027333,0.039398,0.016223,0.044933,0.0054635,0.034288,-0.17083,-0.093745,0.0070258,0.044928,-0.046954,-0.066374,0.016178,-0.1953,0.006692,0.019336,-0.16486,-0.096695,-0.094906,0.036203,-0.022843,0.0048239,-0.14428,-0.22947,0.019546,-0.034513,0.080022,0.021335,0.029306,0.086543,-0.021563,-0.14854,-0.26095,-0.039216,-0.022187,0.033985,0.019725,-0.16118,-0.048096,-0.30493,-0.019561,-0.068107,0.032688,-0.32636,0.04092,0.024549,-0.29502,0.040295,-0.0025929,-0.10973,0.0083915,0.028981,-0.11377,-0.12346,0.015579,0.032367,0.023613,0.011939,0.044407,0.025255,0.011727,0.044039,0.021592,0.015983,-0.0029078,-0.19295,-0.066758,0.027769,-0.21986,0.022001,0.00072172,-0.11359,-0.014517,0.051256,0.0056307,0.041855,0.016985,0.0065958,-0.016974,-0.17041,0.030449,0.018042,-0.12621,0.065555,0.070593,-0.14983,-0.11757,0.017997,0.0025837,0.002027,0.045517,0.046777,-0.14559,0.031238,0.02698,-0.28457,0.051001,-0.11979,0.026884,0.0038774,0.0023241,-0.15558,0.020751,0.039593,-0.31249,-0.00021923,-0.034943,-0.13228,0.049031,0.012323,-0.12923,0.03265,-0.069309,0.0093882,-0.25802,0.022037,0.048256,0.029988,0.026108,0.061785,0.039389,0.039772,-0.12711,-0.067215,-0.021802,-0.14305,0.018078,0.045443,-0.13649,0.05175,0.024129,-0.1406,-0.09494,0.021225,0.0039218,0.011487,-0.15172,-0.12788,-0.13647,0.011199,-0.15051,-0.13362,0.012303,-0.19723,0.053826,0.027574,-0.035768,-0.28922,-0.16251,0.027419,0.017425,-0.059052,0.022282,-0.00038966,0.030362,-0.017781,0.03498,-0.22246,-0.20426,0.028742,0.019786,0.043733,-0.22191,-0.1631,-0.090308,0.069265,0.056049,-0.027759,-0.059225,-0.056095,0.009703,-0.013093,-0.4154,0.025491,0.045702,0.016125,-0.0097678,-0.29712,0.048444,0.053363,-0.30729,0.014429,0.037205,-0.083005,-0.037165,-0.049864,-0.24704,-0.17241,0.026416,0.032518,-0.14231,-0.066766,0.10417,0.042841,0.027468,0.024114,-0.13422,0.029731,0.05889,0.025914,-0.18494,-0.036469,-0.045653,0.0073297,-0.16541,0.013824,0.026768,-0.095281,0.03445,-0.062539,0.042978,-0.37416,-0.2419,-0.19034,0.030413,0.023764,0.016515,-0.0056738,-0.25247,0.036687,-0.093654,0.013071,0.049003,-0.076318,0.022254,-0.16108,-0.12274,0.037575,-0.13647,-0.026108,0.010888,0.011447,-0.14459,0.028609,-0.193,-0.090644,0.041979,-0.047194,-0.034909,-0.067779,0.026881,-0.00061531,0.017155,-0.070013,0.03195,-0.21471,0.031078,0.0073963,0.018379,0.021847,-0.36935,0.016373,-0.20511,-0.14267,-0.03485,0.031662,-0.047979,-0.17649,0.032994,0.052374,-0.21225,0.038344,0.060865,0.023406,0.030679,-0.19816,0.071534,-0.043154,0.027367,-0.014688,0.068973,-0.0073635,-0.004821,0.012247,0.049883,-2.5183e-05,0.016791,0.027483,0.070282,-0.1017,-0.087025,0.026501,0.046039,0.020295,-0.022565,0.0079184,0.014428,-0.14343,-0.02782,0.012203,-0.025301,0.0063111,0.026435,-0.31132,-0.003947,0.028037,0.030655,0.0034808,0.056875,0.025955,0.013684,0.041264,-0.11219,-0.071297,0.010412,0.041406,0.03644,-0.24489,0.017981,0.0384,-0.033553,0.055041,0.044124,0.01839,0.0030559,0.077427,0.0085453,0.025941,-0.036642,0.033038,0.03011,-0.036415,0.033376,-0.33048,0.017311,0.045195,-0.10872,0.047419,0.019636,-0.092075,0.027889,-0.11276,-0.19098,0.055212,0.029641,0.011412,-0.0057187,0.032818,-0.11707,0.013614,-0.023644,0.031354,-0.29787,0.017974,-0.052812,0.052968,-0.36341,-0.20977,0.053312,-0.18284,0.030165,0.047314,0.062137,-0.0016919,0.066084,-0.18452,-0.069926,0.0072955,0.0061277,-0.090033,-0.11631,0.053576,0.057666,0.045587,-0.069313,0.05443,0.005559,0.025077,0.01383,-0.42363,0.051342,0.0499,0.0398,0.028128,-0.12823,-0.26469,0.073204,0.035874,0.051654,0.0034583,0.048421,-0.14951,-0.27583,-0.19927,0.025001,-0.18462,-0.022985,0.0040386,-0.10434,-0.21562,0.009349,-0.033828,0.040324,-0.086425,-0.1334,0.020176,0.016159,-0.079583,-0.047053,-0.074901,-0.086663,-0.089052,-0.13608,-0.016273,0.021434,-0.086833,0.017291,0.036222,0.0042806,0.044041,-0.061522,0.015944,-0.28423,-0.21225,0.040285,-0.19428,-0.047533,0.027198,0.02434,0.031408,0.034456,-0.015861,-0.18677,-0.025528,0.015611,0.021333,0.023433,-0.09167,-0.0061004,-0.037303,0.031625,-0.29782,0.011095,0.094941,0.0064996,-0.028023,-0.014148,0.014771,0.033539,-0.36484,0.080405,-0.011325,-0.069495,0.0056803,-0.27801,0.0093015,-0.0060181,-0.20758,-0.16233,-0.13384,-0.2082,0.0013722,-0.017943,-0.056507,0.021696,0.051861,-0.10123,0.00020576,0.037002,-0.072215,0.005729,0.015132,0.055461,0.010899,0.060013,-0.089763,-0.059771,-0.04286,0.045695,0.035575,-0.16092,0.035737,0.014847,-0.031443,-0.11468,-0.0032463,0.019482,0.026641,0.0068946,0.023979,-0.032951,0.081665,0.025723,0.063168,-0.0795,0.018939,-0.0006754,0.04292,0.0036449,-0.072598,0.029268,0.083208,0.040564,0.015844,-0.028798,0.040888,0.02167,-0.2999,-0.017915,0.056254,-0.025035,-0.22518,-0.13986,0.0094967,-0.062216,-0.3008,0.0087402,-0.16983,0.030664,0.033312,-0.011181,-0.014536,-0.045033,0.023889,-0.0075146,0.041581,-0.012293,-0.018407,0.039855,-0.062568,0.082461,-0.34758,0.030253,0.061837,0.018978,0.01291,0.034797,0.038025,0.019558,0.056094,0.010058,0.027474,-0.42935,0.043563,-0.14526,0.01866,-0.33359,0.0119,-0.00047509,-0.028238,0.02481,0.043171,-0.003695,-0.13525,0.032057,-0.011884,0.065784,-0.25304,0.0058933,0.012532,0.038572,-0.0028768,-0.14305,-0.28245,0.040561,0.060211,-0.13672,-0.14491,-0.14029,-0.092047,-0.058344,-0.02206,-0.073753,-0.010881,0.065064,0.013684,-0.1442,0.038393,-0.40981,0.036999,0.045857,0.03494,-0.3304,0.037372,-0.0015158,0.051293,0.010696,-0.17496,0.0036032,-0.20791,-0.04536,0.090122,0.082281,0.02099,-0.13883,0.00086513,0.040637,-0.0078024,0.042605,0.023129,-0.15121,0.013573,0.018606,-0.29661,0.047512,0.045136,-0.058454,0.027312,0.060053,-0.16839,0.011162,0.023691,0.071746,0.0603,-0.0094725,0.019627,-0.14212,0.01801,-0.15525,0.0042126,-0.083035,-0.21853,0.022951,0.035258,0.0022915,-0.25372,0.014511,-0.0041842,-0.23839,0.00075147,-0.19461,-0.07547,-0.14829,0.041523,0.039112,-0.019153,-0.0023646,0.0018012,0.011192,-0.20132,-0.3486,-0.29544,0.027886,0.015328,0.072904,-0.14895,0.017154,0.0185,-0.23504,0.033744,0.0022529,-0.0082213,0.0030201,-0.12117,0.027601,0.087681,-0.060984,0.051899,-0.4448,7.8955e-05,-0.03979,0.021197,0.012247,-0.03703,0.041145,-0.25931,0.098396,0.020284,-0.099269,0.021567,-0.13619,-0.26426,-0.0035747,-0.066429,-0.0048713,-0.31493,0.029286,0.020094,0.030531,-0.19913,0.036777,-0.29016,-0.097806,0.029219,0.013582,0.0073482,0.016824,-0.012477,-0.046497,0.0049533,0.03425,-0.16454,0.01268,-0.0041631,-0.012843,0.028107,0.039974,0.066957,-0.2564,0.024053,0.0075252,0.021797,0.0068086,-0.10231,0.024756,0.041453,0.031344,0.0067933,0.039667,0.01257,-0.0093453,-0.15653,-0.022333,0.074528,0.021769,0.037859,0.0078347,0.038445,-0.19358,0.043552,0.068698,0.047604,-0.33618,-0.093426,0.028038,-0.031488,0.038701,0.028687,-0.33611
-0.078258,-0.029586,-0.24308,0.016282,0.029348,0.029393,-0.015444,0.06217,-0.029663,0.053619,-0.033081,-0.30583,0.0058904,-0.029597,-0.043962,0.024541,-0.012282,0.052653,0.042804,-0.051345,0.055923,0.10458,0.020024,-0.060964,-0.14846,0.026682,-0.021221,0.0051377,0.037024,-0.27985,0.023606,0.02287,-0.024237,0.014717,0.049362,-0.16294,-0.0025753,0.02818,0.031074,-0.060835,-0.21955,-0.0083029,-0.10994,0.017191,0.041206,-0.10206,0.018007,-0.12299,0.012457,0.060431,-0.082892,-0.091593,0.011104,0.070805,-0.019853,-0.24969,0.049237,0.0082412,0.066303,-0.002566,0.01774,-0.0087549,0.053169,0.0053518,0.050061,-0.20926,0.021236,0.038544,-0.017235,0.034126,-0.25803,0.012232,-0.12389,0.030916,-0.21584,-0.1223,-0.10711,0.047208,-0.082169,0.038335,0.031081,0.00050532,-0.22965,-0.02095,-0.016689,-0.26366,0.024875,0.018032,0.010406,0.02036,-0.30399,-0.057917,0.017492,0.041651,0.042186,0.035546,0.058012,0.0028962,-0.12312,0.041257,0.019093,-0.28022,0.048642,0.040477,-0.067945,0.043688,0.022168,0.029296,-0.0099296,-0.026481,0.019166,-0.0067641,-0.11584,0.074861,-0.10582,0.010723,0.064035,0.012535,0.026732,0.0039389,0.022325,0.05537,0.044273,0.010333,-0.16712,0.019469,-0.043446,0.0052336,-0.012843,0.011943,0.053059,0.044478,-0.068897,-0.014926,0.051886,0.042965,0.043823,-0.060805,0.040387,0.038655,-0.13331,0.013454,-0.0056958,0.019218,-0.25839,-0.065345,-0.23867,-0.0040718,-0.016475,-0.024921,0.025508,0.045996,0.028514,-0.20402,-0.02196,-0.01282,-0.022561,-0.0517,-0.11473,0.025552,-0.23156,-0.0060948,0.034643,0.037605,0.027504,-0.094815,-0.14941,0.038852,-0.26573,0.065037,-0.063867,0.0028616,0.046774,0.0575,0.02306,-0.17676,0.032398,-0.091821,0.042804,0.03729,0.0037552,0.05541,-0.14768,-0.20071,-0.15694,0.064442,0.036048,0.063604,0.014157,0.019382,0.039648,0.048806,0.02664,-0.01536,-0.35646,-0.02669,-0.062099,0.025668,-0.07743,0.073117,0.048024,-0.084241,-0.0023199,-0.049567,-0.00026019,0.042635,-0.33452,-0.01662,-0.081667,0.058192,-0.15818,0.0091426,0.034463,-0.14619,0.057239,-0.10399,0.027136,-0.068787,0.081668,0.011396,-0.1616,-0.089956,-0.013795,0.12122,-0.015396,0.029909,0.036955,0.03907,-0.10387,0.075198,0.019882,-0.35083,-0.049011,-0.40075,-0.37851,-0.0057964,0.0044688,0.0091892,-0.32948,-0.1724,-0.0062847,0.016184,-0.2499,-0.0079821,-0.29363,0.012088,0.049683,0.028448,0.0088263,-0.32596,0.021125,-0.10105,0.054751,0.0071926,0.055688,0.00068095,-0.021749,0.029113,0.035964,-0.22566,0.0057451,-0.01186,0.022664,-0.14326,0.037457,-0.23541,0.01835,0.023098,-0.092967,0.0056372,-0.068299,-0.020683,-0.23042,0.010886,0.02619,0.0045543,0.084456,-0.0014789,-0.25446,0.047045,0.021907,-0.070835,-0.27412,0.0030734,-0.18558,-0.021051,-0.010523,0.054947,0.00044485,-0.41413,0.032012,0.067225,-0.1157,-0.010235,0.059258,0.047313,0.022863,0.034598,-0.076514,-0.044671,0.021145,0.0048219,0.015214,0.039289,0.025265,-0.025024,-0.14526,0.0445,-0.16445,0.022702,0.057612,-0.092722,0.046313,-0.39781,0.077958,-0.0012391,0.042803,0.010677,0.0086394,-0.12352,0.031743,-0.16785,0.050425,0.0032536,-0.031441,-0.10723,-0.021716,-0.00027266,-0.097958,-0.086859,0.040417,0.0033427,-0.19765,0.045929,-0.0027532,-0.15422,0.12735,0.08207,0.029547,-0.15626,0.039572,-0.29219,-0.17708,0.055945,-0.23165,-0.00027799,-0.04328,0.065961,0.057409,-0.090347,-0.14172,0.05524,0.083394,0.05787,0.060855,0.09372,0.0066108,0.043323,0.05328,0.0036485,-0.0018701,0.0043169,0.028706,-0.17002,-0.0083239,0.078924,-0.0101,-0.0095733,0.028534,-0.033972,0.012278,0.047928,0.013344,0.03135,0.012848,0.057748,0.0063358,0.0082303,0.038075,-0.30804,0.0012368,0.039853,0.048281,-0.3188,0.080499,0.033839,-0.42074,-0.06074,-0.18529,-0.0042901,-0.059226,0.008394,-0.27959,0.03607,0.0070121,0.065241,-0.21071,-0.29939,-0.15678,0.037641,-0.016063,0.01015,-0.27785,0.082018,0.053426,0.027935,-0.14946,-0.22081,-0.0088384,0.077836,0.02377,0.010304,-0.021704,0.079817,0.039194,-0.31851,0.0073721,-0.036491,0.029713,0.011403,-0.36783,0.070223,-0.0029833,0.0054457,0.042002,-0.0094265,-0.0020446,-0.079801,0.05789,0.0003491,-0.13734,0.024737,0.047162,-0.14887,0.012152,0.046414,-0.033421,-0.13201,-0.019904,0.004963,-0.31923,-0.014249,0.062866,0.023054,0.015274,0.049201,-0.033806,0.07092,0.074463,0.030773,0.060826,-0.0035706,-0.044012,0.0161,-0.0047032,-0.1662,-0.16263,0.017064,-0.26683,-0.062253,-0.013985,-0.043923,0.013231,0.013372,-0.00042019,-0.35229,0.042897,-0.34972,0.023947,0.023012,0.024388,0.035657,0.033582,-0.22008,-0.033593,0.023575,-0.12507,0.010937,0.024179,0.0051027,0.0049392,0.073702,0.013606,-0.35048,0.012777,0.029235,0.0595,-0.1131,0.059477,-0.28881,0.073439,-0.13518,0.035639,0.041583,0.036176,0.067989,0.026032,-0.0764,-0.013561,-0.022837,0.064858,0.041069,0.025972,-0.29837,-0.17379,-0.23899,-0.22197,0.029138,-0.036272,0.0046517,0.058796,-0.12335,-0.062372,0.025311,0.057976,-0.18809,-0.22138,-0.0018526,0.012861,-0.0635,0.033465,0.045925,-0.16558,0.04111,0.036364,-0.24864,-0.2388,0.0021375,0.026978,-0.031257,-0.30987,0.025236,-0.12156,-0.0085447,-0.3637,-0.218,0.0028498,-0.32,0.047621,0.04865,0.0017152,0.067553,-0.22923,-0.015557,0.020031,0.022326,-0.18913,-0.011969,-0.059574,0.0016719,-0.29709,-0.15863,0.022099,0.013614,0.07665,-0.20601,-0.29545,0.05444,0.10411,-0.2035,0.014903,0.0084252,0.015048,-0.1754,-0.072522,0.056188,-0.28622,-0.31041,-0.093305,-0.26398,-0.1378,0.037935,0.045388,-0.0024487,0.04199,0.042296,-0.20087,0.041412,-0.11062,-0.2285,0.055767,0.042958,-0.0041696,-0.23292,-0.017905,0.031105,-0.057441,0.037275,-0.018706,-0.29658,0.051522,-0.20686,0.037528,-0.21161,-0.0063389,0.012496,-0.18864,0.022183,0.043756,0.07224,-0.27074,0.043073,0.0046325,0.0013304,-0.14209,-0.10053,-0.0019005,0.03394,0.049627,-0.37558,0.046988,0.016454,0.031723,-0.2454,-0.010442,-0.086253,0.084432,-0.24937,-0.14393,-0.24623,-0.038317,0.0062947,0.077466,-0.11148,-0.061091,-0.16981,0.034924,-0.041609,0.0096251,-0.034308,0.062073,0.091662,-0.0039922,0.030424,-0.0017953,0.06123,0.04807,0.035607,-0.046155,-0.27001,-0.020019,-0.0052083,-0.2309,-0.0085967,0.024315,-0.047727,0.041033,0.053178,-0.001829,-0.22694,-0.20237,0.080456,-0.0028475,0.026978,0.0076523,0.080022,-0.0054558,0.042514,0.012697,0.062894,0.060545,0.027335,0.015099,-0.013093,-0.011078,0.028502,0.040962,0.026843,-0.0077031,0.023484,0.011887,-0.094635,-0.067345,0.041249,-0.17249,0.018502,0.018605,-0.12201,0.054965,0.057992,0.043796,0.04397,-0.12703,0.056119,0.032915,-0.19063,0.051812,0.0028512,-0.18241,0.035853,0.0064253,-0.20041,-0.042208,-0.16474,-0.29684,0.031362,-0.27849,0.00018593,0.051222,-0.00076342,0.056694,0.044491,0.022983,0.03956,0.010357,-0.12245,-0.026006,-0.25902,0.051645,-0.011202,-0.19362,-0.093331,0.044507,-0.010189,-0.16427,-0.062023,-0.28725,-0.15288,-0.2336,-0.025585,0.045213,0.074767,0.075046,-0.30418,-0.061503,-0.33195,-0.0068541,-0.1939,-0.088527,0.044778,-0.0043329,-0.0010976,-0.21162,-0.26539,0.01394,-0.020505,0.059375,-0.33448,0.029493,-0.0045626,0.054065,-0.00020189,-0.11673,0.033014,-0.13969,0.066161,-0.13148,0.00046865,-0.12813,-0.1759,0.028716,0.013458,-0.15713,-0.22721,0.088366,0.063018,-0.22984,0.009961,-0.083156,-0.07664,0.0043138,-0.05034,0.0094701,0.093663,0.024575,-0.042551,-0.20486,0.033757,-0.023909,0.0033164,0.07917,-0.027184,-0.10993,0.015157,0.024987,-0.39668,0.049375,-0.29905,-0.22258,-0.25166,0.045607,-0.04287,0.068305,-0.12413,-0.067292,0.03604,0.028413,0.035046,0.016608,-0.048423,0.06562,-0.2194,0.020297,-0.018539,0.029538,0.0051494,-0.0030917,0.013708,0.047375,-0.092351,0.068993,0.00513,-0.017771,0.041884,0.044437,0.070731,-0.11253,0.0051471,0.035059,-0.15075,0.030763,0.046861,-0.31337,0.04239,-0.083583,-0.10359,-0.028605,0.075281,-0.24623,-0.20761,0.038231,-0.3126,0.017666,-0.040706,-0.19239,-0.0015271,0.060196,-0.0089626,0.0018408,0.045644,-0.11205,0.054062,-0.23945,-0.17991,-0.020663,0.031029,-0.2184,0.039312,-0.25551,0.036749,-0.1034,0.013174,0.044335,0.034978,0.043866,-0.023917,0.038952,0.011864,0.023245,0.057032,0.029741,-0.080024,0.045003,-0.077801,0.024153,0.019175,-0.13417,0.027476,-0.0016368,-0.21382,0.016369,0.057056,-0.25249,-0.0027536,0.0093307,0.044828,-0.029044,-0.018785,0.073189,-0.20764,0.020135,0.056381,-0.081091,0.058408,-0.0015812,-0.031288,-0.16487,0.048744,0.021567,-0.063265,0.0073355,0.019942,-0.035914,-0.058818,-0.3578,-0.23439,-0.011422,-0.27846,-0.018102,-0.2753,0.01265,0.034452,-0.01696,-0.0078987,0.017559,0.033505,-0.23181,0.011931,0.062062,0.033299,-0.25818,0.083053,-0.071344,-0.065639,0.015495,0.069924,0.025427,-0.07767,-0.2147,-0.15872,-0.030026,-0.075841,-0.064859,0.046052,0.021688,-0.00074632,0.040782,-0.096783,0.031161,-0.33174,0.020643,-0.27011,-0.25645,0.078561,-0.19263,0.072212,0.042661,-0.21026,-0.11441,0.012496,-0.24653,-0.10147,-0.10982,-0.17426,-0.0013307,0.039517,-0.081494,-0.0046191,-0.16805,0.013481,0.023441,0.070752,-0.053702,0.064179,0.018818,0.0056116,0.0011981,0.023272,-0.00010008,-0.010748,0.019166,-0.012587,0.038129,0.025054,0.018562,-0.22653,-0.073097,-0.16535,0.039814,0.02619,-0.022454,0.0023876,0.063061,0.029061,-0.11968,-0.010052,0.04183,-0.11878,0.0026154,0.065878,0.014352,-0.012378,0.041858,0.0064727,0.03249,-0.11565,0.01452,-0.13129,-0.25511,0.017841,0.021649,-0.012478,-0.10355,0.012914,0.029975,0.054008,-0.22347,0.014279,-0.26002,0.024126,-0.26939,-0.006589,-0.22824,-0.023575,-0.34877,0.014396,0.066871,-0.36318,-0.25351,-0.17952,-0.30823,0.022927,-0.058419,-0.20576,-0.37533,0.028113,0.048387,-0.001823,-0.0012996,0.054026,0.015034,0.013662,0.049125,-0.0023722,0.046353,-0.089852,-0.047845,0.02308,0.043423,0.038794,-0.14861,0.047309,0.028772,0.044405,-0.19229,0.0011983,-0.034483,0.036452,-0.068965,0.042146,0.087721,0.084645,-0.15071,0.028981,0.03971,0.018758,-0.055738,-0.039215,0.0094925,0.023971,-0.026947,0.031359,-0.3235,0.025976,-0.013411,0.060545,0.040812,-0.12123,0.039424,0.015341,0.021962,-0.00045292,0.08555,0.0033539,0.015611,0.0095704,0.043715,-0.0010405,-0.022716,0.023011,-0.0024641,-0.3014,0.039977,-0.088435,0.029846,0.021372,-0.012715,0.02231,0.067811,-0.0050514,0.052102,0.07223,-0.38038,-0.31666,-0.18722,0.039167,0.033105,0.034123,0.012535,0.038674,-0.341,-0.20113,0.030925,0.098938,0.026192,0.034504,-0.31385,-0.0017477,-0.21837,-0.0303,0.0096993,0.021857,0.0092629,0.043991,0.032574,-0.03674,-0.17297,0.011378,0.0058217,0.050626,0.018517,0.051463,-0.066422,-0.23447,0.022806,0.042534,-0.083427,0.024654,0.03532,0.016087,0.021521,0.024195,-0.0035096,0.033605,0.00090484,-0.0022899,0.0052854,-0.05357,-0.20663,0.011615,0.069032,-0.18497,0.06367,-0.0053988,-0.013888,-0.25131,-0.11557,-0.11449,0.035402,0.021999,0.15793,-0.13195,0.055642,0.03526,0.042373,-0.12846,-0.026896,-0.038499,0.005597,0.06468,0.056007,-0.0018399,0.01396,-0.027256,-0.065377,-0.012306,-0.00096395,-0.23593,-0.059672,-0.18163,-0.27281,0.06289,-0.13698,-0.34104,-0.17861,0.087901,-0.20072,0.012047,-0.15678,-0.0060913,0.0072067,0.037348,0.0028681,-0.087472,0.082461,-0.029389,-0.26757,0.099853,0.038816,0.0064921,0.059063,-0.1189,0.0083131,0.0078432,-0.022861,-0.064092,0.024558,-0.0682,0.033949,0.053925,0.019489,-0.25221,0.0051101,-0.20789,0.041689,0.024964,0.020858,-0.13831,-0.082392,-0.09686,-0.11946,-0.040972,0.066247,-0.022026,0.029654,-0.18006,0.033867,0.051657,0.045182,-0.00025938
0.026843,-0.23056,-0.18048,-0.23931,0.018032,0.023059,0.079647,0.070729,0.085284,-0.2786,-0.17695,-0.12656,-0.14465,-0.044733,0.027333,0.010719,0.021715,0.045039,0.054725,-0.04215,0.035293,0.03208,-0.28259,-0.05613,-0.1951,0.017085,-0.20147,-0.19867,0.062431,-0.18442,0.025885,-0.15246,0.017648,0.056719,0.046472,0.037213,-0.15062,0.034055,0.041877,0.022773,-0.04272,-0.14283,0.0084205,-0.0066588,-0.13877,-0.12852,0.059484,0.012459,-0.28706,0.038186,0.031813,0.0042783,0.032015,0.024262,0.06523,0.0089333,0.039247,-0.3095,0.010506,-0.10347,-0.1432,0.027233,0.072143,0.019602,0.034274,0.047981,0.026872,0.021801,0.0018743,0.034582,-0.019318,-0.059119,-0.078795,0.0094407,-0.10424,-0.13886,-0.17572,0.097126,0.0052075,-0.18705,-0.22336,0.032785,-0.061997,-0.1706,0.028901,-0.045578,-0.095967,0.057397,0.069046,-0.023367,-0.3148,0.0039562,0.00038273,0.0010597,0.014671,-0.048762,0.03874,0.0068587,-0.041284,-0.16499,0.0095504,0.0099997,0.048689,-0.016343,-0.0017103,0.060331,0.044376,0.0084391,-0.21713,0.002375,-0.067825,0.052441,-0.11448,0.038493,-0.24877,-0.073128,0.032045,0.028215,-0.010272,0.056898,-0.22093,0.02592,0.051859,-0.1851,-0.18502,-0.001359,-0.061318,-0.0078,-0.14816,-0.10529,0.011679,0.071702,0.016948,-0.0050301,-0.089319,-0.12413,-0.054619,0.012199,0.0007514,0.049302,0.0065822,-0.27575,-0.13609,0.036592,0.0090065,-0.0086262,-0.0011968,-0.096331,-0.087354,-0.1814,-0.037859,0.030667,0.045772,-0.19253,-0.011164,0.020508,0.030705,-0.032435,-0.21675,0.023302,-0.11804,-0.017987,0.056499,0.026834,-0.029764,0.02804,-0.050198,0.033304,-0.15374,0.035799,-0.0014819,0.021456,0.013189,0.076008,0.018549,0.013869,0.054173,0.040448,-0.10004,0.031589,0.011085,0.031466,0.034018,-0.26899,-0.0051921,0.017545,0.012567,0.037957,0.017432,0.033166,-0.1069,0.025474,-0.13009,0.017137,-0.0094335,0.028164,-0.024023,0.034294,-0.14193,0.0455,0.05101,-0.019122,-0.032472,-0.10142,-0.045113,0.019365,0.011271,0.014439,-0.2362,0.047367,-0.15077,0.0062432,0.076953,0.021364,0.017376,0.040397,-0.18732,0.013075,0.031277,0.022004,-0.0054953,0.12389,0.023506,-0.046554,-0.012091,-0.063448,-0.11451,0.045261,-0.033338,-0.00096919,0.028473,-0.24035,-0.10906,-0.24076,-0.19613,-0.052609,-0.0081779,-0.078927,-0.0089568,-0.26343,-0.2769,0.037603,-0.025271,0.00029166,-0.20682,-0.10214,0.026164,0.0010646,-0.12579,-0.343,-0.070951,-0.11962,0.06288,0.019472,0.016562,0.031835,-0.018882,0.038218,-0.010696,0.01246,0.040161,-0.12795,0.00056955,-0.17532,0.058013,0.016747,0.083663,-0.008429,0.038614,0.015882,0.0085793,-0.085334,-0.099881,0.041599,-0.20275,-0.06243,0.019918,0.011505,-0.22152,0.0098154,-0.23509,-0.092483,0.037116,-0.011622,0.019293,-0.038014,0.066584,0.056944,-0.019967,0.016069,-0.15704,0.0098121,0.0011037,0.052078,0.05795,-0.07338,-0.12486,0.0038052,-0.1928,-0.023678,-0.013331,0.016473,-0.28834,0.042287,-0.0011471,-0.28498,-0.088139,0.039235,-0.24918,0.0093013,0.03365,-0.15055,0.0061767,-0.21663,0.0091846,-0.17539,0.044085,-0.064804,0.011849,-0.087192,-0.32148,0.020277,0.012522,-0.002721,-0.064522,-0.10626,-0.0064378,-0.059642,-0.0419,0.00080246,0.044684,-0.098652,0.017305,0.042833,-0.0093645,-0.13264,-0.072273,-0.0083189,-0.037617,0.035212,0.035975,0.0095566,-0.012045,0.039335,0.032909,-0.10245,-0.026586,0.02578,0.059514,-0.13595,0.015926,-0.096939,-0.17514,0.03181,0.023168,-0.062875,-0.2723,0.041044,0.028474,0.061097,-0.039921,-0.21319,0.061397,-0.0024711,-0.059114,0.02037,0.015277,-0.018686,-0.045127,-0.15068,-0.11212,0.052657,-0.18622,0.016126,0.018094,0.035557,-0.2537,-0.22615,0.021774,-0.10454,-0.010087,0.016819,0.0017636,0.020072,0.0040358,0.034948,-0.0038722,-0.020247,-0.058782,0.0027832,-0.062088,-0.2283,-0.0022388,0.03852,0.01315,0.042875,0.017201,0.021069,-0.016101,0.035984,-0.19742,-0.013061,-0.2506,-0.14608,0.040934,-0.18538,0.026665,0.031231,-0.018741,0.03922,-0.12515,-0.084423,-0.15771,0.0093855,0.030632,0.010983,-0.15354,0.02643,0.019926,-0.01405,0.036585,-0.19789,0.01977,0.05578,-0.0054522,0.034296,0.014691,-0.11352,-0.097602,0.0050433,-0.08258,-0.18393,0.044605,0.010281,-0.16229,0.065456,-0.13303,-0.36538,-0.13133,-0.1277,-0.15649,0.041982,-0.0096509,0.059632,0.037104,0.014133,-0.004243,0.037858,0.085961,0.029113,0.044323,-0.098838,-0.061675,-0.21557,-0.17649,-0.0036946,-0.18468,-0.075734,-0.095537,-0.017118,-0.060796,-0.25659,0.018378,0.00060391,-0.046546,-0.19539,0.012325,-0.31768,0.0034589,0.042482,-0.0011201,0.024504,-0.18227,0.025336,-0.030372,0.018943,0.048407,-0.24018,-0.11107,-0.095577,0.031645,0.043448,0.02586,-0.19445,0.017524,0.0042221,0.047701,-0.032064,-0.013672,0.019286,0.035333,-0.19711,-0.050616,-0.17157,-0.010582,0.017252,-0.019048,0.015263,-0.026579,-0.0019446,0.019345,-0.10453,0.045768,0.012643,0.001723,-0.11016,-0.031846,0.059025,-0.061737,-0.20138,0.06396,0.01709,-0.040978,0.0084704,-0.053854,-0.1438,-0.17632,0.019178,-0.0361,0.05206,0.024678,0.035355,-0.056883,0.042002,0.020375,0.027294,0.098734,-0.10333,0.048693,0.04156,-0.034957,-0.012807,-0.13808,-0.02273,-0.22925,-0.15316,0.020355,0.0077475,0.0029402,0.019942,-0.33044,0.057418,-0.17501,0.010349,0.043912,0.012213,0.073069,0.02986,-0.061237,0.0056603,-0.023889,-0.028495,-0.17129,-0.17832,0.012641,-0.0053774,-0.021265,0.022187,-0.082902,0.0069255,-0.24792,-0.13366,0.01514,-0.017145,0.00040113,0.0088056,-0.23006,-0.20888,0.026546,-0.0019875,-0.10745,0.025699,0.029478,0.0041918,0.054191,0.085563,-0.26413,0.025998,-0.17978,0.0011405,0.017852,0.068432,0.01346,-0.22345,-0.0085947,-0.051571,-0.078639,-0.0064715,0.0057287,0.0072328,0.010907,-0.14052,-0.010994,-0.078308,-0.020356,-0.3447,-0.14603,-0.00087193,0.020751,-0.19664,0.037734,0.036851,-0.0048119,-4.2823e-05,-0.081743,-0.016108,0.0097134,-0.18089,0.057761,0.011486,0.045966,0.038104,0.023849,-0.11751,-0.006995,0.013567,0.019217,-0.18469,-0.0869,-0.20418,-0.097096,0.0096752,0.042043,-0.0027946,0.0086285,0.037587,0.037819,0.053922,0.021175,-0.097632,0.033436,0.060437,0.0094136,0.0097389,-0.00178,0.05442,-0.02018,0.040804,-0.046262,-0.070497,0.0075135,0.070579,0.046436,-0.023573,0.035489,0.035235,0.054938,0.0023324,0.055711,-0.13977,-0.1002,0.040306,-0.19931,0.015597,-0.18126,0.015446,-0.016724,-0.038973,-0.0037682,0.0369,0.038977,-0.050624,0.017183,0.01098,-0.20476,-0.043127,-0.022453,-0.015415,-0.0063298,0.0060586,-0.29075,-0.050301,-0.037129,0.034539,0.013425,-0.20729,0.024272,-0.073946,0.024328,0.058874,0.022248,-0.0039159,0.035094,-0.015492,0.048045,0.010589,0.052545,-0.010787,-0.11475,0.036785,-0.18933,0.041409,-0.048664,0.015864,-0.091625,0.045126,-0.094991,-0.096389,0.023376,-0.22787,0.066437,-0.079582,-0.11042,0.034358,-0.03219,0.030528,0.025097,0.012635,0.029758,-0.0052261,-0.19252,-0.18615,0.042059,0.035056,0.028249,0.021456,-0.22508,-0.059938,-0.16558,0.015378,-0.02141,-0.21225,-0.23975,-0.29009,-0.076038,-0.08449,0.01525,-0.29327,-0.25539,0.076871,-0.18628,-0.10324,-0.03531,-0.0029829,-0.24517,-0.11659,0.040292,0.0057965,-0.0076953,-0.036938,0.027949,0.0073566,-0.025244,0.046549,-0.20328,0.030361,-0.028506,-0.23725,-0.25327,0.021876,0.016886,0.064361,0.025377,0.053407,0.005247,0.049465,-0.075826,0.015449,-0.061626,0.063895,0.049291,-0.26665,-0.10256,0.023437,0.050813,-0.14381,-0.10081,-0.1902,0.034907,-0.2074,-0.093218,-0.084506,-0.13171,-0.23534,-0.090163,0.015957,0.039187,-0.13024,-0.14179,0.014337,0.050255,-0.068141,-0.010128,0.0043421,-0.085216,-0.028383,0.035924,0.029404,-0.06586,-0.0027913,0.047805,-0.12541,0.012874,-0.01648,0.014939,-0.25309,0.10052,0.031311,0.043987,-0.047772,0.020491,0.08931,0.0057321,0.017959,0.011625,0.012453,-0.0054889,0.018471,0.054387,-0.08747,0.024925,0.03023,-0.27468,-0.028643,0.057391,-0.1987,0.01232,0.034266,-0.15273,-0.19326,-0.0043413,0.023584,0.072303,-0.13021,-0.061879,-0.029722,0.069821,-0.25261,-0.25615,0.0071839,0.042031,0.024725,-0.13046,-0.082284,-0.015805,0.022199,0.010145,-0.12853,0.0050451,-0.098534,-0.037713,-0.21119,0.071805,0.029688,0.072721,-0.25002,0.039263,0.022821,0.015742,0.078414,-0.057888,0.0043456,0.050945,-0.038571,0.032518,-0.17277,-0.0019856,0.022098,-0.06781,-0.05628,0.024855,0.035011,-0.16175,-0.0042253,-0.20656,0.055216,-0.044265,-0.0065028,0.018789,-0.15983,0.049685,0.021143,-0.013249,0.040545,0.036816,-0.12208,-0.0040174,0.053966,-0.1612,0.044332,-0.016021,-0.095385,0.032294,-0.050991,-0.088534,-0.12528,-0.039328,-0.080164,0.010158,-0.092665,0.018204,0.020669,0.015887,-0.14208,-0.16779,0.021051,0.001011,0.0030702,0.050492,-0.027971,0.0245,0.025062,-0.083101,-0.023279,-0.0427,0.046906,0.042226,-0.10161,-0.008847,-0.10584,-0.074969,0.015428,-0.11196,-0.031037,0.030206,0.011647,0.026534,-0.12341,-0.16332,0.016919,0.0077166,-0.003791,0.0083642,0.020306,-0.09456,-0.1295,-0.12346,0.0059581,0.008468,-0.048278,-0.27713,0.0033872,0.036153,-0.025085,-0.044348,0.040925,0.016666,-0.078123,0.020957,0.050108,-0.15298,0.026817,-0.13486,0.032771,0.0033446,0.021023,-0.076367,-0.021194,-0.03953,0.030929,0.059809,-0.0919,0.045044,-0.16279,-0.28431,-0.075141,0.0089461,-0.17469,0.047197,-0.026874,-0.20114,-0.0030555,0.085316,0.048363,0.0013568,0.0057198,0.013937,0.080948,0.014045,0.042205,-0.2156,0.017824,0.041293,-0.19945,0.045134,-0.043342,0.0096629,0.051668,-0.21603,-0.0139,0.038575,-0.013095,-0.091026,-0.12125,0.064945,-0.12234,-0.091926,0.013516,-0.19896,0.002588,-0.10369,0.021507,-0.060906,-0.20618,-0.22163,0.016559,0.049833,-0.066478,-0.38753,0.0099214,-0.16047,0.055832,-0.23245,-0.17944,-0.25913,0.032365,0.060132,-0.23871,0.012132,-0.11002,0.065317,0.0072056,0.042927,-0.087371,0.080741,-0.22416,-0.14502,-0.17007,-0.23444,0.029921,-0.010209,0.010375,0.026574,-0.07957,0.011807,0.0040602,-0.13005,0.043018,-0.041989,-0.23337,0.010181,0.040272,0.0058962,0.051903,0.0049933,-0.032605,0.039267,-0.016392,0.0302,-0.070517,-0.0012934,0.0092151,-0.27495,-0.062605,-0.11645,0.030635,0.058041,0.0084094,-0.018808,-0.060215,0.0014077,0.070918,0.028035,-0.13607,-0.0073841,0.012107,0.070334,0.0037118,0.09567,-0.18044,0.00013842,0.013969,0.037488,0.054088,0.018726,0.0041754,-0.0081456,0.030022,-0.13167,0.044136,0.035787,0.053822,-0.15991,0.013105,-0.10449,0.040883,0.030147,0.048535,0.028867,0.040521,-0.1023,-0.18503,-0.19811,0.015274,0.023566,0.021286,-0.21435,-0.0086549,0.0076228,-0.050753,-0.16963,-0.010356,0.0083908,0.014381,0.020762,0.016649,-0.228,-0.1765,0.060025,0.048888,-0.0039839,0.022066,-0.014357,-0.18245,0.063893,0.02785,-0.094753,-0.0056536,0.012841,-0.0038707,0.0083856,-0.039343,0.0042142,0.036508,0.057568,0.046653,-0.27984,-0.079989,-0.036987,-0.20397,0.03199,-0.32,0.00069452,-0.00018288,-0.15835,0.015814,-0.010489,-0.0035767,0.043869,-0.12746,-0.025425,0.027306,0.0070871,0.044472,-0.08089,-0.029378,0.079369,0.007411,0.019972,-0.097207,0.031621,-0.10902,0.0047763,-0.044169,0.015828,-0.28452,-0.091205,0.022646,-0.057956,-9.2589e-05,-0.2912,0.033102,-0.023454,-0.15229,0.057762,0.024154,-0.13596,0.0017776,-0.11836,-0.0024985,0.034616,0.060451,0.010701,-0.11972,-0.1673,-0.16376,-0.14945,0.035872,0.026693,-0.026388,0.051848,-0.16874,-0.080384,-0.30249,-0.020034,-0.15657,0.048756,0.0563,0.028988,-0.035362,0.017867,-0.013096,0.017162,0.0090225,0.054677,-0.013855,-0.1054,0.038354,0.0098187,0.041383,0.019731,-0.035159,0.018764,-0.11251,0.035353,-0.0092914,-0.06582,0.03463,0.034432,-0.07277
0.049776,0.022099,0.027247,0.045907,0.020843,0.032088,-0.32578,0.051647,-0.11027,-0.26086,-0.11054,0.035236,-0.1381,0.021385,-0.14675,0.028374,0.017331,0.02545,0.026167,-0.016091,-0.0072491,0.019875,0.01454,0.0092143,-0.21234,-0.21982,-0.0077887,-0.028283,0.050562,0.03126,0.016637,-0.078955,0.092873,0.038596,0.015228,0.066566,0.014946,0.039695,-0.14493,-0.34173,0.010734,-0.074006,-0.020055,-0.2938,0.024197,0.028477,0.027167,-0.0096456,-0.30952,0.0057266,0.083751,0.0084755,-0.16491,0.041512,-0.048637,-0.2325,0.031347,0.032306,0.091634,0.021863,-0.0020466,-0.11263,0.051438,0.08072,0.031018,-0.056195,-0.32518,0.038118,-0.003855,-0.00018727,-0.067459,-0.15217,-0.00017697,-0.27224,0.013331,-0.0058097,0.020163,0.02634,-0.20662,0.031476,-0.041047,-0.022673,0.0057237,-0.0045292,0.032881,0.029282,-0.0069689,0.0091564,0.034456,-0.11543,0.026119,-0.029087,-0.042372,0.02301,0.017545,0.013768,0.047524,-0.1017,0.011281,0.047439,0.093049,-0.15295,0.0091855,0.026194,0.023743,0.026175,0.06293,0.022939,-0.11845,-0.28516,0.012248,-0.060958,-0.12079,0.02656,-0.017534,-0.23646,0.038615,-0.29695,-0.09976,0.026452,-0.1517,0.0471,0.038816,-0.095683,-0.042322,0.021319,-0.21135,-0.018714,-0.001031,-0.086436,-0.10819,0.070957,0.015724,-0.26106,0.027728,0.021745,-0.14253,-0.048096,-0.13109,0.053538,-0.017823,-0.10195,-0.010818,-0.039222,-0.037795,0.0048721,-0.19006,0.024693,0.020547,0.0047054,-0.014647,0.054048,0.047631,-0.03038,0.033936,-0.083225,-0.06015,-0.10974,0.016686,0.0057019,-0.0033072,0.027371,-0.039109,0.063417,0.037916,-0.21457,0.02002,0.069542,0.012285,0.10723,-0.014353,-0.2926,0.031374,0.029615,-0.29676,-0.14231,0.064741,-0.12453,0.0227,0.043383,-0.029274,-0.29802,0.038138,-0.23783,-0.17464,0.02375,-0.16066,0.029914,-0.077966,0.060481,0.016976,0.081584,0.057264,-0.012572,0.015347,-0.11728,-0.010071,-0.047877,0.03532,0.081516,0.028912,-0.12716,0.0041712,0.015522,0.016901,0.027101,0.042768,-0.11712,-0.207,0.0060779,0.00048661,-0.30604,0.05305,-0.024257,0.083989,0.058918,-0.18696,-0.085189,0.037559,-0.011571,-0.32151,-0.12597,-0.026183,0.039479,-0.1287,-0.047805,0.016543,0.075447,0.013939,0.036426,0.031842,0.063513,0.047956,0.042475,0.10046,-0.075653,0.041255,0.024619,0.0066663,0.013149,-0.0063728,0.011878,-0.0862,-0.0089552,0.018884,-0.19417,0.058649,0.022273,-0.14685,0.013444,-0.085091,0.015302,0.023332,-0.073634,0.070978,-0.11516,-0.13065,0.033993,0.0010444,-0.0083228,-0.29621,-0.091178,-0.010582,0.048894,0.081777,-0.27197,0.07251,-0.23609,0.049154,-0.15697,0.019357,-0.088472,-0.18707,-0.15152,-0.083324,0.018449,-0.045457,0.0097451,-0.24522,0.053838,0.0051677,0.0020763,-0.0063154,-0.3666,-0.069041,-0.034035,-0.059259,0.093067,0.012913,-0.020294,0.024511,0.055624,-0.18555,-0.07495,0.052003,0.02305,0.0015815,0.035259,-0.16731,-0.00068119,0.013937,-0.0097431,4.222e-05,0.024164,0.010727,0.029012,-0.022107,0.055565,0.0021494,-0.16777,0.053567,0.01462,0.056283,0.031963,0.033144,0.028874,0.062342,-0.1263,0.029407,0.012528,0.02345,-0.11071,0.032497,-0.060348,0.017252,-0.045118,-0.029353,-0.064585,-0.023557,-0.094934,0.012852,-0.12195,0.015325,0.025449,-0.30379,0.025097,0.11775,0.025896,-0.11072,-0.12416,0.02865,0.030751,0.0136,0.028496,0.038797,0.027094,0.0065847,0.012427,0.061857,0.0018186,-0.021539,0.02278,0.049446,0.059041,0.022514,0.0012236,0.016447,0.0068751,0.049712,0.054675,-0.1423,-0.23133,0.052771,-0.0081091,-0.25675,-0.065873,0.078154,-0.086296,-0.093031,0.0032309,0.026586,-0.22101,-0.24973,-0.036345,-0.20677,0.028778,0.015211,0.0077532,-0.05807,0.038681,-0.059899,0.065157,-0.15872,-0.20557,-0.16604,0.025206,-0.14238,-0.073571,0.021079,-0.060296,-0.010428,-0.19834,-0.1238,-0.015664,-0.34715,0.013285,0.037796,0.028221,-0.3462,-0.0057656,0.0077722,-0.10043,0.058244,0.012372,0.033672,-0.19727,0.033608,-0.23988,0.05215,0.038515,0.0056528,-0.049197,0.041683,0.023016,0.032189,-0.1036,-0.18327,-0.030973,-0.40945,-0.22693,-0.0038431,-0.22369,-0.17362,0.021615,-0.29019,-0.13638,-0.10822,0.017472,-0.10257,0.021081,0.020301,0.0087543,0.022954,-0.20083,0.00054239,0.048642,-0.10704,-0.008742,-0.11013,0.030068,-0.0040366,-0.21043,-0.021826,0.052307,0.057883,0.046748,-0.13622,0.019037,0.05048,-0.0040683,0.054503,0.031809,-0.092389,0.036545,-0.057568,-0.2081,0.052952,0.046696,0.00026483,0.02743,0.0018249,0.068769,-0.0057899,-0.11762,-0.15329,0.026339,-0.083043,-0.24908,-0.096728,0.033069,-0.12631,0.0391,0.031298,0.01434,-0.0054903,0.0097219,-0.14787,-0.10516,-0.28938,-0.21245,0.065857,0.033651,-0.072839,0.043873,-0.083122,0.04836,0.057598,0.00073704,-0.099387,-0.20408,0.062918,-0.024722,0.025768,0.04166,0.028671,0.040512,-0.10394,-0.069857,0.006116,0.0068176,0.030625,-0.090599,0.049977,-0.074637,0.037082,0.013476,-0.070769,0.023149,0.04477,-0.21653,0.046847,-0.27375,0.024087,0.040549,-0.079539,0.028971,0.04681,0.052942,0.034071,0.011913,0.024845,0.030744,-0.17174,-0.021007,0.023964,0.004532,-0.21627,-0.3031,0.068414,0.051128,-0.010925,-0.38142,0.024862,0.025309,0.0085444,-0.34284,-0.009241,-0.0090016,0.04721,0.039515,-0.19833,0.065053,0.0088268,-0.23193,0.065542,-0.12832,-0.035629,-0.046234,0.012651,-0.053175,0.034446,-0.22158,0.0003246,0.016199,0.041142,-0.19618,0.034633,0.052994,-0.0073739,-0.14292,-0.15161,0.011491,0.052708,-0.07551,-0.088491,0.061171,-0.0029839,0.034987,0.0017403,-0.19271,-0.015492,0.032244,0.049238,-0.10934,0.063274,0.040742,0.01069,0.066203,0.0073171,-0.19403,0.017085,0.077722,-0.039332,-0.25643,-0.060012,0.0064707,0.019282,0.0049456,-0.1648,-0.10669,0.049858,-0.11305,0.062244,-0.15871,-0.0031774,0.010214,0.032967,-0.17613,0.029173,0.041442,-0.1197,0.038922,0.034272,-0.14116,0.026134,-0.16899,-0.054996,0.0712,0.026095,-0.010376,0.045057,0.032784,-0.05582,0.027957,-0.21417,0.022838,0.02644,0.0070456,-0.22857,0.017385,-0.2376,-0.12885,-0.13673,0.0023594,-0.15831,0.011694,0.043245,-0.034262,-0.25511,0.014807,0.046404,0.047061,-0.093814,0.034426,-0.11939,0.053553,0.0087821,0.014911,0.026096,-0.04756,0.051505,-0.33859,-0.32387,0.037792,-0.093958,0.048238,0.045278,0.042932,0.012145,-0.0039055,0.012848,0.037734,-0.10144,0.0065083,-0.0088106,0.066603,-0.1007,0.0065761,-0.34713,0.032369,0.045142,0.041481,0.034644,0.0050558,-0.18922,-0.046865,0.025765,-0.16076,-0.077165,-0.10231,0.028834,0.012751,-0.045909,-0.080664,-0.24281,0.019544,0.02164,-0.14271,0.050884,0.054043,0.060787,-0.17998,-0.19102,0.0033631,0.026642,-0.050344,0.055669,-0.23415,0.021925,0.055589,0.0063929,0.0083908,0.016682,-0.16396,-0.22475,0.061027,0.034429,-0.10097,0.09312,-0.0081617,-0.18548,0.027845,-0.14509,0.063691,-0.20993,0.022545,-0.20487,-0.19383,0.027341,-0.070857,-0.01697,0.03665,-0.11815,-0.26793,-0.10817,-0.21562,-0.16185,0.0097334,-0.13375,-0.084936,-0.0094165,0.019446,-0.3024,0.03919,-0.14342,0.048396,0.046163,0.0087684,-0.1797,0.069394,-0.25299,0.021426,0.049501,-0.055207,-0.0020153,-0.015437,0.040667,-0.13207,0.0060222,0.029556,0.021392,-0.17643,-0.0086522,0.034997,-0.24869,0.032021,0.011463,0.031324,0.0049071,-0.15713,0.019027,0.035936,-0.044004,-0.10699,-0.1643,-0.22523,0.013127,-0.23637,0.011672,0.031215,-0.25809,-0.32802,-0.20924,0.042205,0.024964,-0.15813,0.023733,0.030005,-0.0060714,-0.22037,-0.11169,-0.21238,0.016646,0.026425,-0.21157,-0.10289,0.034469,0.019966,0.026844,0.042559,0.031674,0.002103,0.063648,0.034515,0.019366,-0.076805,0.02533,0.019231,0.015748,-0.1052,0.035139,0.043298,-0.14393,-0.039834,-0.23957,-0.14891,0.044913,-0.36194,0.095845,-0.0052103,0.045903,0.0077164,-0.07382,0.033829,0.011904,0.06298,0.019631,-0.11962,0.043583,-0.021065,-0.070758,0.016877,0.02054,0.025289,0.074165,-0.17663,-0.28058,0.031309,0.018974,-0.0084139,-0.13658,-0.23016,0.056,0.018173,0.020033,0.045576,0.0036458,0.053252,-0.3073,0.050616,-0.078549,0.043427,0.053467,0.034056,0.022589,-0.19842,-0.22079,-0.0077788,-0.15461,-0.27202,-0.0095923,0.0094516,-0.070328,-0.024403,0.0074851,-0.097731,-0.00010961,0.088693,-0.23012,0.031012,0.019389,-0.17254,0.025572,0.013763,-0.018845,-0.010214,-0.13154,0.035116,0.073999,-0.0015515,0.024418,0.033492,-0.12502,-0.16403,0.020233,0.026898,-0.27633,-0.0036199,0.067208,-0.0079058,0.0067261,0.016579,-0.018194,0.02005,-0.1661,-0.037461,-0.27119,0.0035137,-0.24492,-0.13891,-0.038475,-0.07422,-0.1285,0.015102,0.072592,-0.04114,0.022402,0.0016018,-0.095983,0.011329,-0.10927,0.027834,-0.10481,-0.0058913,-0.013247,0.051085,-0.0095151,0.007,0.060521,0.044248,-0.12789,0.057436,-0.19261,0.00044102,0.012043,0.067881,0.044363,-0.003055,-0.013863,-0.19551,0.032374,-0.28396,0.011296,-0.11814,0.03001,0.045783,-0.0041041,-0.21462,0.04579,-0.16435,-0.18998,-0.10704,-0.10919,0.016786,0.018643,-0.0091304,0.04291,0.026942,-0.12351,0.03366,0.024433,-0.13451,-0.0395,-0.098275,-0.07333,0.061972,0.048721,-0.18573,0.059721,0.085293,0.0042972,0.012561,0.030742,-0.18487,0.040062,0.057614,-0.034478,-0.11224,-0.14386,0.0056853,0.045423,-0.090717,0.057984,-0.11645,0.039618,-0.011665,-0.055198,-0.22929,0.049846,-0.01306,-0.25597,0.022691,0.070647,0.069765,-0.12564,-0.23766,-0.00056444,-0.0097642,-0.32394,0.03361,0.039988,-0.18987,0.0074332,0.012306,0.058146,-0.044642,0.017809,0.0070283,-0.0033341,0.051812,0.075837,0.017843,0.0069622,-0.30381,0.04681,-0.00033486,0.0021028,-0.23969,0.029951,-0.038794,0.024702,-0.09034,-0.24763,0.017676,0.043219,-0.10898,0.061252,-0.10245,0.026391,-0.29721,0.002606,-0.20742,-0.024769,-0.10234,0.051652,0.076284,0.014006,-0.30317,0.016271,-0.1772,0.021018,-0.34701,0.029435,-0.0079654,0.030966,0.014999,-0.073681,0.008302,0.056467,0.053744,-0.075641,0.032813,0.043991,0.039613,-0.020218,-0.16634,0.037386,0.056532,0.01549,-0.073574,0.047987,0.053816,-0.11562,0.030329,-0.27696,0.0235,0.039659,-0.23244,-0.017425,0.015537,0.0010685,-0.039683,0.0053074,-0.14731,0.038951,0.051086,0.015274,-0.1803,-0.048927,0.011355,0.074748,0.02434,0.029066,-0.0021967,0.022491,0.043467,0.040872,-0.092071,-0.15344,0.00011588,-0.098299,-0.10196,0.049413,0.064663,0.01088,-0.0067206,-0.094458,0.021125,0.065173,-0.1057,0.065694,-0.16441,0.033858,-0.23734,0.027847,0.058151,0.014857,-0.018335,0.1101,0.033496,-0.00072951,0.059786,0.010367,-0.046272,-0.1958,-0.10052,-0.3377,-0.13207,-0.1623,0.023925,-0.22922,0.0056406,-0.17919,2.3613e-06,0.049648,-0.20415,0.012712,-0.0087065,0.031709,0.021097,0.062041,0.043758,0.0041665,0.020803,0.052618,0.031585,-0.1567,-0.0028156,0.041913,-0.053336,0.003155,-0.011251,-0.14915,0.049185,0.072359,0.028391,0.032143,-0.011457,-0.313,0.0018133,0.04078,0.033967,0.073427,-0.11784,-0.00027219,0.013293,-0.14517,0.022022,0.038433,0.013305,-0.31559,-0.024013,-0.10939,-0.042591,-0.029577,0.0095857,-0.17276,-0.062147,-0.28566,-0.13071,0.035041,0.022872,-0.0095967,-0.14356,0.024433,0.0067021,0.014492,0.045977,-0.0097702,0.0046584,-0.004947,0.030949,0.013228,-0.0084881,0.027647,-0.10081,-0.015739,0.022071,0.025125,0.026615,-0.14004,0.013936,0.043445,0.023533,0.0082953,-0.09334,0.0051922,0.033035,0.03452,0.0021696,0.059925,0.037508,-0.16419,-0.3315,-0.010246,-0.18504,0.023541,0.030365,0.10465,-0.084392,-0.30971,-0.12493,-0.034469,-0.042571,0.068122,0.010582,0.024464,0.017449,-0.084814,-0.14832,0.039073,0.0062797,0.069775,0.012603,0.0091607,-0.1834,-0.0255,0.003063,0.047745,0.0157
0.0055169,-0.067163,-0.27533,0.021642,-0.13548,-0.16785,0.025916,-0.0010326,-0.0013032,0.018055,-0.096632,0.019383,-0.23563,-0.073551,-0.068968,0.033991,0.036223,0.013653,0.020119,0.012642,0.0239,0.032261,-0.024002,-0.056333,-0.14557,-0.22365,-0.39353,-0.35584,0.044911,-0.37231,0.060482,-0.18297,-0.0042997,0.020282,0.029576,-0.24548,-0.018117,0.047801,0.021443,-0.0055239,-0.024282,0.02771,-0.062013,0.030217,0.014606,-0.20379,0.064343,-0.13597,-0.031284,0.039301,-0.084004,-0.041297,0.024736,0.02865,-0.010615,-0.0011458,0.070677,0.010994,0.022352,0.010197,0.016864,-0.023517,0.082875,-0.16899,0.042621,0.062896,0.019479,0.055707,-0.073987,0.038122,-0.18063,-0.0039184,-0.15158,0.00036584,-0.16766,-0.24071,-0.063045,0.016972,-0.24482,-0.29476,0.044444,0.030821,0.075487,-0.12422,-0.17657,-0.095095,-0.19195,0.030692,0.034544,-0.28453,0.030711,-0.021134,-0.35822,0.026697,-0.14614,0.092271,0.024415,0.018565,-0.016279,0.036126,-0.27782,-0.36602,0.030927,0.028882,-0.10228,0.093477,0.031479,0.061242,-0.11534,-0.1929,0.0094434,0.0028767,0.017512,0.028588,-0.17117,0.0037917,0.043631,0.010305,0.040843,0.042067,0.0058761,0.054985,0.021875,0.020948,-0.097944,-0.041073,-0.045763,-0.16939,-0.012311,-0.36962,0.051071,0.01457,-0.0063001,0.032795,-0.070707,0.033239,0.040724,-0.21035,0.0058121,0.067477,-0.08279,-0.33979,-0.30377,0.0085187,0.018264,-0.21318,0.022031,0.016798,0.023136,-0.31981,-0.038127,0.019834,0.020609,-0.21908,-0.0049937,-0.20522,-0.017871,-0.047955,0.014464,-0.013022,0.055679,-0.025768,0.027946,0.040642,0.033593,-0.018512,-0.18846,0.029061,-0.29584,0.056141,-0.095614,-0.02174,0.077893,-0.0040084,0.053117,-0.12874,0.045582,-0.13617,0.057986,0.045335,0.025772,0.029783,-0.0030042,-0.30571,-0.26154,0.034809,-0.11798,0.052008,0.042334,0.040389,0.041305,0.026023,0.00029599,-0.22607,-0.31326,0.031178,-0.074671,0.10529,0.029761,0.026942,0.074493,-0.18971,-0.15415,0.0064005,0.076605,-0.068312,0.027901,0.018673,-0.28409,0.024417,-0.17926,0.016848,0.030782,-0.28115,0.037381,-0.076011,0.0034416,-0.064613,0.0092965,0.036846,-0.21678,-0.006716,0.015644,-0.051575,0.029538,0.026696,-0.20142,0.047976,-0.089098,0.0083681,0.036897,0.048212,-0.039286,0.02173,0.0040227,-0.12171,-0.027183,0.095059,0.032105,-0.045552,-0.3945,-0.1283,0.048244,-0.086452,0.017735,-0.12488,0.044149,-0.015116,0.032145,-0.1464,-0.1557,-0.079118,0.026927,-0.074214,0.035391,-0.23941,0.013314,0.047163,0.037933,-0.23867,0.023356,-0.24438,-0.12455,0.056978,0.050465,-0.00065111,0.043169,0.0088954,0.028064,0.010853,-0.021166,-0.028179,-0.1956,0.0061244,-0.26944,-0.17555,-0.0052211,-0.24819,-0.28237,0.030084,-0.26134,-0.15168,-0.21612,0.029021,0.015068,-0.093921,0.016311,0.001682,0.0048282,-0.27128,-0.33556,0.062034,0.020324,-0.15058,0.022365,0.039355,-0.22544,0.045147,-0.22726,-0.047227,-0.18444,0.012156,0.025701,0.051477,-0.15143,-0.0028748,-0.025291,0.018065,-0.28823,0.0054461,0.05,-0.26911,0.065945,0.017909,0.024603,0.020194,0.045597,-0.18879,0.034219,0.0033447,0.035351,-0.12048,-0.22472,-0.19786,0.054889,-0.15072,0.021078,0.0065035,0.062612,-0.19439,0.023373,-0.081991,0.0091734,0.027094,0.025275,-0.21325,0.12663,-0.22019,0.031792,-0.25932,0.037638,-0.16935,0.025045,0.040367,0.0053802,0.083551,-0.13632,0.059373,0.013701,2.9502e-05,-0.0076845,0.098998,0.030617,-0.0067888,0.04987,-0.15395,0.057796,0.046649,0.020212,0.033716,-0.13462,0.020656,0.043703,-0.045093,0.013468,0.047895,0.014319,-0.30771,-0.25788,-0.22571,-0.24479,-0.0091428,0.0011211,-0.0027042,-0.098693,0.04823,-0.32899,0.019968,0.032909,0.020189,0.059492,0.013998,-0.11339,-0.01455,0.029708,0.041737,-0.28968,-0.18047,-0.18232,-0.22549,-0.093055,-0.2708,0.015666,0.036099,-0.0070845,-0.050018,-0.23607,0.0095993,-0.20283,0.06185,-0.28272,-0.21864,0.02415,-0.24589,0.044149,0.029319,-0.1209,-0.0062015,-0.01003,0.043315,-0.055769,-0.18257,-0.13548,-0.17211,0.010226,0.016731,0.01241,-0.14769,0.004411,0.03842,-0.27716,0.027943,0.012044,0.019632,-0.23242,-0.23403,0.036285,-0.24696,0.026168,-0.21943,-0.21372,-0.35341,0.053776,-0.19691,-0.078773,0.015094,0.040349,-0.19448,0.03116,0.031189,-0.00065074,0.014472,-0.085953,0.036024,0.038785,0.056523,-0.099696,0.019828,-0.0019902,0.021165,0.040797,-0.17313,-0.12461,0.043853,0.017331,-0.20314,-0.17957,-0.0046128,-0.20845,0.029422,-0.11945,-0.29581,-0.30909,0.018326,-0.013918,-0.030651,0.057318,-0.20311,0.020233,0.043544,-0.33804,0.050519,0.090281,-0.060226,-0.037079,0.007932,0.016906,-0.0090319,-0.1913,0.010981,0.039536,0.0089498,-0.0068625,0.0126,0.021217,0.035427,0.017274,-0.11413,-0.13555,-0.020141,0.058956,-0.10494,0.035684,0.040056,0.076874,-0.15574,0.042216,-0.21583,-0.067002,-0.2238,0.022622,0.0023951,0.055858,-0.00083443,-0.14332,0.039565,-0.082729,0.064432,-0.17519,-0.15961,0.021131,-0.20217,-0.084182,0.01603,-0.066307,-0.25367,0.053357,0.049573,0.030461,0.020803,0.076022,0.045258,0.055111,0.028519,0.067723,0.0568,-0.0076855,0.007178,0.061686,-0.024539,-0.17173,0.018582,0.053336,-0.28452,0.018106,-0.0027132,0.029812,-0.22466,0.046597,0.030792,0.028605,0.054935,0.027683,0.025157,-0.041792,-0.077929,-0.17668,-0.066553,-0.082881,-0.005795,-0.19465,-0.18448,-0.22566,-0.238,0.024837,-0.21837,-0.15356,0.054331,0.077018,-0.12975,-0.0032527,-0.30119,0.046164,-0.19725,0.072351,0.060023,0.0021654,-0.023295,-0.13135,-0.042119,-0.091698,0.049442,0.053226,0.016323,0.048599,0.036222,-0.10143,0.021361,-0.3371,-0.07827,0.047461,0.060634,0.040335,-0.29108,-0.089324,0.066974,-0.083989,-0.039561,-0.23008,-0.0011706,0.06752,-0.012793,0.043294,0.030568,-0.012254,-0.4242,0.0072986,0.072248,0.031341,0.061216,0.012432,0.045506,-0.38938,-0.063613,0.022931,-0.02316,0.032454,0.039296,0.0016166,-0.24318,0.0024819,0.020496,0.0031461,-0.013329,0.00044464,-0.0064972,0.047607,0.018341,-0.18708,0.019076,-0.19446,0.037708,-0.0072952,-0.039602,-0.17693,-0.11953,0.03102,-0.13292,0.047506,-0.16869,0.059566,0.030848,-0.02804,0.061909,-0.26151,0.024513,-0.049019,0.029375,0.076929,-0.0073632,0.06183,0.023968,0.00016587,-0.24222,0.048062,0.014954,0.020197,0.058603,-0.16781,0.0084336,-0.0027249,0.018868,0.0062611,0.012998,-0.076017,0.03768,-0.10927,-0.034209,-0.023169,0.042945,0.049819,-0.0019809,0.067074,-0.0044249,-0.35033,-0.02818,-0.10535,0.04043,-0.038487,0.040402,0.008811,-0.1848,-0.020797,0.035296,-0.018317,0.027963,0.0049389,-0.15217,0.065115,0.07154,0.043914,0.019013,-0.011727,-5.6421e-05,0.030426,-0.1566,0.03019,0.020385,0.006808,0.017889,-0.0078063,0.006871,-0.13186,0.0076305,0.0039152,0.0092703,0.027021,-0.031624,0.045003,0.060327,0.021136,-0.2554,0.018562,0.015527,0.0084855,-0.1407,-0.23283,-0.057077,0.018186,0.026029,0.013135,0.038694,0.035984,0.012272,-0.17213,-0.058579,-0.29855,-0.060664,-0.018024,-0.1752,-0.082781,-0.10584,0.036533,-0.0059597,-0.19234,-0.24082,0.040102,0.0085171,0.0075865,0.042889,-0.31716,0.041363,-0.10941,-0.1236,0.036319,-0.22632,-0.0041194,-0.27272,-0.063253,-0.12797,0.026051,0.043595,-0.19521,0.042301,-0.23242,0.042292,-0.13833,-0.44039,-0.25504,0.02493,-0.21146,0.031772,0.035966,-0.083919,-0.11667,0.018423,-0.27314,0.0061922,-0.14729,0.078703,0.016746,-0.18137,-0.34258,-0.012357,-0.025351,-0.021007,-0.27497,-0.15374,-0.0030267,0.0048412,0.030305,0.059437,-0.23198,0.025242,-0.24252,-0.23572,0.037359,0.026937,-0.24972,0.00027025,0.076534,-0.16606,0.063092,-0.18387,-0.1514,-0.16059,-0.19576,0.043668,0.058898,-0.191,0.040187,-0.023361,0.056446,-0.098681,-0.20545,-0.024288,0.10306,0.027782,0.0081349,0.097827,0.01926,0.017165,-0.098405,0.048829,0.056599,0.05313,-0.16308,0.055716,0.038814,-0.2253,0.040564,0.064864,-0.15126,0.032881,0.026806,-0.05082,-0.22359,0.032222,0.015169,-0.071307,-0.19033,-0.063106,-0.0028322,0.0085369,-0.20498,-0.16144,0.043874,0.041679,0.029824,0.027259,-0.015132,0.019628,0.047677,0.024249,-0.025406,-0.0018361,-0.319,-0.12847,-0.017581,0.011677,-0.10847,-0.30672,0.046329,-0.26585,0.13546,-0.0068286,0.012708,0.049703,0.0016558,0.03714,0.038909,-0.21666,0.024988,-0.17755,0.012324,-0.0089404,-0.16165,0.0986,-0.02788,-0.26977,0.0288,0.026658,0.022,-0.20892,0.019576,0.014108,0.0078204,-0.3059,-0.0045689,-0.32721,0.050374,0.051935,-0.097484,0.040875,-0.0045174,-0.29726,-0.047028,0.029059,-0.33335,-0.012343,-0.10763,-0.019674,0.0041609,-0.10713,-0.24886,-0.28164,-0.15661,-0.17812,-0.044346,-0.26911,0.0068816,0.033335,-0.0011863,-0.21071,-0.15964,0.030683,-0.01679,-0.25145,0.020667,0.030896,-0.036768,-0.065296,-0.19216,-0.10673,-0.24555,0.037153,0.078792,-0.18837,-0.14631,-0.19401,-0.093665,-0.14682,-0.1961,-0.21946,0.020168,-0.17947,0.069661,-0.19107,0.036025,-0.0083859,0.0096827,0.028053,-0.14791,-0.24872,0.020913,0.011886,0.057894,-0.1488,-0.067481,0.061061,-0.38629,-0.14734,0.044847,-0.063824,-0.18598,0.027378,0.0088232,0.0091361,-0.033607,0.021061,-0.16533,-0.01514,-0.18561,0.06253,-0.1888,0.053037,-0.21413,0.020664,-0.091228,0.023591,0.04607,-0.13378,0.029359,-0.16515,-0.37318,-0.1907,-0.020939,0.018396,0.014808,-0.33101,0.023583,-0.31156,0.059856,0.056239,0.039107,-0.10516,0.062127,-0.065297,0.013953,0.034615,0.10653,-0.20661,0.074706,0.037345,0.037273,-0.14282,-0.33332,-0.24377,0.004485,0.023873,-0.056698,-0.06441,-0.1396,0.0020665,0.012353,-0.0099723,0.022859,0.025796,-0.15819,0.018636,-0.33916,-0.15062,-0.25765,0.0071085,-0.0036003,-0.050869,0.036243,-0.12732,0.013274,-0.2038,-0.2649,0.037973,0.013299,-0.15118,0.03051,0.058387,0.070743,0.024334,0.082272,-0.0088466,0.047568,-0.03661,0.03575,-0.30021,0.014997,0.001837,0.012669,0.019629,0.011325,0.045845,-0.10485,-0.2174,0.076137,0.0015139,-0.10052,0.023947,-0.00088473,0.012434,-0.11688,0.068521,0.067228,0.027145,-0.15996,0.037407,0.01593,0.026789,0.014239,-0.30975,-0.14709,0.017982,-0.3187,-0.097281,0.02676,-0.12321,-0.22302,0.055655,0.047188,-0.16547,0.061562,-0.22504,-0.014638,0.029238,0.0027199,0.013436,0.027095,-0.015394,0.036873,-0.045986,-0.0087065,-0.30012,-0.2716,0.0082708,0.027374,0.015953,0.012414,0.057401,-0.2009,0.003485,0.054467,0.03347,0.021531,0.0072458,0.0035704,-0.32418,-0.18737,0.068311,0.013934,-0.086743,-0.15471,0.018174,-0.11825,-0.19313,-0.27252,-0.17233,0.073117,0.013787,0.022028,-0.017802,0.010965,-0.0027299,0.0097136,-0.02492,0.024636,-0.1641,0.045287,-0.26533,0.0091963,-0.38681,0.038371,0.060195,0.069927,0.025177,-0.020218,-0.15826,0.038661,0.049025,-0.0072105,-0.33067,0.051194,-0.076914,0.022953,0.03009,0.0072997,0.046351,0.016271,0.050508,0.012199,-0.2269,-0.20283,-0.18669,0.037429,-0.16402,-0.077523,0.085875,-0.25608,-0.14592,-0.060924,-0.044936,0.051456,0.042774,-0.14762,0.011714,-0.043462,0.0034027,-0.22354,-0.048839,-0.00053206,0.092186,0.04515,-0.22919,0.031638,-0.18845,-0.00040489,-0.10938,0.0077682,-0.30754,0.03499,0.0079929,-0.16521,-0.16763,-0.022781,0.042533,-0.002804,-0.18318,-0.054469,0.032198,-0.25309,0.012011,-0.10973,-0.0087959,0.059834,0.059221,-0.26756,-0.071072,-0.36669,0.0079139,-0.0075273,0.044331,0.056147,0.0087398,0.027543,0.026036,-0.16093,-0.0035354,-0.032651,0.020048,0.047624,-0.17166,0.027753,0.060661,-0.04511,0.016619,0.047382,-0.28379,0.041052,-0.15132,-0.21217,-0.11556,-0.13145,0.018514,0.03891,-0.13762,0.024608,-0.088908,0.021008,0.022827,0.00068303,-0.0018778,0.038661,0.078547
